为了	0.035569146 0.06272081 -0.032693204 0.020574035 0.0045864605 -0.0020900527 -0.045325067 -0.019603424 0.07506449 0.018349538 -0.0014022646 -0.042203024 -0.023595756 -0.056369368 -0.041596007 0.028177688 -0.030029345 -0.0257234 0.012755698 -0.004343157 0.0458387 -0.040018328 -0.031056399 -0.059491217 -0.012517633 -0.051894713 0.048674125 -0.0149671 -0.038751706 0.03933284 -0.06277909 -0.04604373 -0.019638048 -0.0077464697 -0.056517407 -0.049762435 -0.0032040344 -0.00934345 0.06883911 0.009193723 0.0461147 0.020911792 -0.027498262 0.045601398 0.04645753 -0.029280882 -0.04389173 0.050904516 -0.0486102 -0.0009689326
分析	0.029463707 0.04112446 -0.026163837 0.026200214 0.014669345 -4.6073634e-05 -0.03788357 -0.010855271 0.05072991 0.011958339 -0.006338756 -0.024772102 -0.0040555624 -0.03865473 -0.021804407 0.021319289 -0.018798087 -0.027626075 0.02383654 -0.007115377 0.026215633 -0.030924927 -0.012257578 -0.033117168 -0.0039501763 -0.038228586 0.024324192 -0.013092605 -0.025864286 0.03311169 -0.03289077 -0.020837381 -0.0108320685 -0.00529803 -0.04619145 -0.03732524 0.009263406 0.0068160486 0.0450718 0.007633143 0.029089618 0.01919606 -0.010210416 0.019220166 0.016004587 -0.026172545 -0.034687478 0.03195743 -0.019626014 0.00043776253
某种	0.01780824 0.04575133 -0.03460497 0.011970534 0.004458713 -8.2170525e-05 -0.031017058 -0.02130232 0.042846538 0.016286353 0.0051003424 -0.029051246 -0.0015837674 -0.031546686 -0.018275421 0.02284551 -0.004900859 -0.008637648 0.004265184 0.0047742072 0.025973316 -0.0292661 -0.020863544 -0.03324587 -0.004174246 -0.029909652 0.028862836 -0.009867356 -0.030572977 0.017934958 -0.04419171 -0.027093794 -0.0035612762 -0.004367248 -0.03991326 -0.03146667 0.012738186 -6.7699846e-05 0.037060156 0.005556033 0.017933827 0.019545905 -0.011088185 0.032926634 0.032959957 -0.009498651 -0.032794565 0.037487417 -0.022198359 -0.0037193778
结构	0.03686979 0.05982197 -0.030586893 0.023679256 0.007882279 0.011163388 -0.03524438 -0.024345465 0.06507779 0.0071540982 -0.00052168214 -0.021577055 -0.017855778 -0.039217982 -0.02855809 0.021093266 -0.01651918 -0.015327356 0.008856835 0.0029846497 0.02592115 -0.020742968 -0.028035197 -0.049884085 -0.006563654 -0.031724695 0.025501559 0.0018961685 -0.029561177 0.03160473 -0.030705504 -0.01901394 -0.00085873937 -0.015859473 -0.04803902 -0.040971715 0.013293388 0.005540868 0.055663947 0.0059483727 0.036852133 0.016534058 -0.02826064 0.026337394 0.03380928 -0.02528568 -0.02906928 0.031096986 -0.033235207 -0.0059131947
助推钻地弹	0.029900398 0.06263767 -0.026456503 0.02125753 0.012676332 0.002165295 -0.027353529 -0.0207673 0.06776791 0.009819907 -0.00076683756 -0.029820623 -0.004835454 -0.045290574 -0.038884856 0.012305947 -0.027627693 -0.022061922 0.024365548 0.002483572 0.042774063 -0.02832485 -0.022140965 -0.05125276 -0.0097546615 -0.04488513 0.033185784 -0.005100624 -0.027614629 0.033744916 -0.04848745 -0.030630242 -0.002114599 -0.019870793 -0.058908444 -0.03800793 0.0071686 -0.009535045 0.05509703 0.013914595 0.039843876 0.02125347 -0.02006107 0.029972468 0.027532032 -0.024467546 -0.045555264 0.05013341 -0.04288889 0.00031797422
的	0.03054592 0.050640006 -0.028938795 0.014324981 -0.0009340956 -0.0053916434 -0.032526597 -0.004219725 0.036675718 0.0029755519 0.0061398777 -0.030058665 -0.008446322 -0.030262003 -0.02003788 0.010157929 -0.020974213 -0.025333649 0.016115088 0.010905043 0.028336609 -0.01886759 -0.023138305 -0.03263587 -0.01427968 -0.031758554 0.024563998 -0.0022523284 -0.01718558 0.02684789 -0.037114203 -0.014053264 -0.007403282 -0.016259035 -0.041316725 -0.019556027 -0.0042492244 0.0013412125 0.0410054 0.0012451377 0.02781877 0.0038795425 -0.02209534 0.021288192 0.015552204 -0.014138375 -0.027213298 0.033601295 -0.01671842 -0.011675541
侵彻	0.020315373 0.029231679 -0.027317958 0.016138174 0.010057364 0.011838957 -0.019528013 -0.008988067 0.047557898 0.009146361 -0.0102559775 -0.020427033 -0.014463755 -0.033761997 -0.024023328 0.0010699857 -0.019813774 -0.013247552 0.016888054 0.0026227632 0.027955316 -0.027285408 -0.009057628 -0.025633438 0.0020735224 -0.023868922 0.026779821 0.0046919193 -0.012054375 0.018553799 -0.036027003 -0.023441017 -0.005048164 -0.0072179944 -0.027690731 -0.018119544 2.334246e-05 -0.009320222 0.03513075 0.0146713415 0.03069654 0.0020669126 -0.008780856 0.022038344 0.020871965 -0.016961442 -0.031787775 0.035269782 -0.024471646 0.0028402996
效果	0.013752264 0.022322128 -0.025741495 0.017018737 0.00571454 0.0036138436 -0.023748806 -0.019022392 0.02419661 0.010209205 0.0069982745 -0.020021105 -0.009810228 -0.026691603 -0.012636134 0.004751689 -0.011308166 -0.019486343 0.017381836 0.0020731203 0.01950003 -0.011582366 -0.01947484 -0.01981148 -0.013769104 -0.021351898 0.014019121 0.0055843676 -0.012572958 0.0175968 -0.017818686 -0.023075664 -0.0040491056 -0.013180774 -0.025793156 -0.020889694 -0.00032730712 -0.00024185919 0.030265728 0.0071466863 0.017155897 0.015187679 -0.004321638 0.009772756 0.01752784 -0.02103501 -0.015681213 0.023285275 -0.013003612 0.003253564
，	0.009813946 0.04426147 -0.02957065 0.014247446 -0.001207838 -0.0032403218 -0.026244452 -0.018922016 0.04879906 0.0036868548 -0.004646969 -0.024003725 -0.016264774 -0.03437006 -0.030880723 0.019632632 -0.01934986 -0.015857149 0.010998556 0.007498161 0.021401074 -0.019414175 -0.019824784 -0.038271558 -0.0009447682 -0.031790808 0.019631714 -0.0013017 -0.016274575 0.015005749 -0.038536344 -0.016458891 -0.012042333 -0.0074833506 -0.04013144 -0.02913135 0.000825197 0.0069955727 0.037395984 0.007605624 0.022551026 0.00026071403 -0.019568931 0.029349228 0.02432873 -0.007118244 -0.032937743 0.036199965 -0.017278273 -0.009661955
本文	0.015921153 0.033979908 -0.021636138 0.009335096 -0.0063521955 -0.006320061 -0.014822075 -0.008431218 0.030672027 0.0065854914 0.004437939 -0.014300246 -0.015518729 -0.020209685 -0.008043363 0.008882064 0.0011600783 -0.016325522 0.012455579 -0.004176211 0.0136891045 -0.0075964183 -0.010776974 -0.0123855425 -0.005610431 -0.018547175 0.023326572 -0.0058903806 -0.008049985 0.015598661 -0.016445406 -0.006871145 -0.013219808 0.0023390227 -0.019256994 -0.021761708 0.007488023 -0.008909666 0.026236853 0.005750133 0.016569823 -0.0015562328 -0.0035859882 0.008077679 0.020972943 -0.0029670154 -0.0051549524 0.024415499 -0.013324809 0.0049011614
作者	0.023751602 0.037983403 -0.024655415 0.00741691 0.0036837906 0.0043683797 -0.013573782 -0.00373605 0.031751502 0.010138767 -0.0023245073 -0.020649951 0.00027218973 -0.029537966 -0.009869886 0.01067576 -0.010645569 -0.0077807573 0.007004505 0.0024110824 0.0211387 -0.017999846 -0.022172887 -0.031368956 -0.014794053 -0.019119188 0.027340308 -0.008553175 -0.0049982783 0.025462534 -0.013885186 -0.025460562 -0.003623414 -0.005009787 -0.025268009 -0.027983544 -0.0023195203 -0.0011838271 0.025147539 0.018378414 0.026046917 0.008814894 -0.009678373 0.015329408 0.02565359 -0.0057857777 -0.023367222 0.024169603 -0.025853498 -0.008205079
首先	0.012137612 0.029538844 -0.015990293 0.011601288 0.0020432204 -0.002810674 -0.018994108 -0.008857887 0.03730186 0.0030612985 0.00019474133 -0.017560592 -0.01091787 -0.025817227 -0.005485305 0.011608091 -0.0076998724 -0.0024675746 0.0064986027 0.0050280336 0.010763823 -0.011533709 -0.0054444624 -0.02080978 -0.012932627 -0.022538576 0.02122594 7.931572e-05 -0.01019437 0.0170592 -0.015421416 -0.020169266 0.0012472131 0.00036314462 -0.012915774 -0.020791166 -0.0024788675 -0.0034741436 0.030352931 0.0036886085 0.022252532 -0.0048598503 -0.01892252 0.021887038 0.014728276 -0.008991967 -0.022036515 0.011641315 -0.005285805 -0.0074006305
进行	0.013379878 0.03025626 -0.018594898 0.009249291 0.010744939 0.010646085 -0.019065363 -0.0037517461 0.015955338 0.00021810428 -0.003872138 -0.009856601 -0.014411796 -0.02162506 -0.011587634 -0.0012898911 -0.0034806991 -0.018189577 -0.0020958127 -0.009041781 0.015466345 -0.015427738 -0.004327668 -0.013588838 -0.009378805 -0.015310367 0.015341177 0.0033641492 -0.015146749 0.0012498372 -0.013843499 -0.011255738 -0.004716213 -0.008824586 -0.01061789 -0.012781054 -0.008179131 0.0003553285 0.020232258 0.0072371676 0.010177009 -0.004068763 -0.01036588 0.017736029 0.009864655 -0.018203251 -0.0178649 0.0054669473 -0.017320052 -0.009225167
了	0.021276208 0.035598047 -0.013152666 0.02042723 0.013546638 0.003047199 -0.013343564 -0.009303129 0.028498005 0.01033541 -0.012153664 -0.01205586 -0.0071455366 -0.026311234 -0.019297224 0.016116004 -0.016084103 -0.013424055 0.019028267 0.00095363904 0.012568924 -0.022436187 -0.0056655803 -0.017845603 -0.015920887 -0.02322319 0.011547901 -0.0018556418 -0.022631798 0.013131728 -0.021367006 -0.016944552 -0.011938582 0.003202438 -0.019056704 -0.026699774 0.008521956 -0.0006652977 0.02409252 0.013050158 0.015192256 -0.0026681433 -0.015472786 0.01503048 0.0113299675 -0.020274956 -0.019417834 0.029243898 -0.028240714 -0.012821459
无	0.013007984 0.035969313 -0.0069777886 0.014589357 0.007866147 0.000630592 -0.025159717 -0.0059622885 0.031838 -0.004273148 -0.006133531 -0.016898094 0.0008884923 -0.019832056 -0.024588611 0.018208805 -0.0042027617 -0.010307328 -0.0013772914 -0.006915086 0.025117004 -0.010494571 -0.013567967 -0.01954869 -7.89749e-05 -0.027812162 0.013140493 0.0054460843 -0.016365733 0.01586888 -0.020847842 -0.0069481684 0.0019214051 -0.007069619 -0.026755014 -0.021385033 -0.0010527098 0.004439968 0.018657956 0.009465182 0.025423694 0.0153749315 -0.0062362906 0.016415676 0.017040841 -0.0120514585 -0.01672529 0.017394604 -0.012023832 0.00065785187
助推	0.021145236 0.028713023 -0.012015301 0.019534009 0.00700741 0.010275728 -0.022620136 -0.015591999 0.0305336 0.01229303 -0.0011605711 -0.010669284 -0.0033460164 -0.023677817 -0.014424923 0.013762228 -0.015239066 -0.017603904 0.014934627 0.007822437 0.007443155 -0.01632035 -0.019486649 -0.018721007 -0.0022190183 -0.017417647 0.020553375 -0.007205659 -0.022157822 0.021944735 -0.028908016 -0.020030785 -0.013157205 -0.003215115 -0.031372316 -0.016534587 -0.003829497 0.0053773015 0.024085388 0.0013691293 0.024617964 0.0056326585 -0.018231118 0.0052683936 0.014416512 -0.016751692 -0.028168673 0.019294726 -0.021415692 -0.0007009172
即	0.019453844 0.034047537 -0.01855365 0.012934429 0.010285449 0.011908673 -0.013274227 -0.007298469 0.035205174 0.0022188602 0.001767865 -0.0153719215 0.00062983256 -0.011792754 -0.018936234 0.0005094768 -0.016371552 -0.01523461 0.014800939 0.00024997897 0.026442638 -0.024505235 -0.004537528 -0.032783262 -0.0069754343 -0.014797287 0.010198814 -0.010136693 -0.009303176 0.02103816 -0.03002104 -0.023264488 -0.004328184 -0.014977712 -0.029631399 -0.012677385 -0.0015933628 -0.002564389 0.027551332 0.010653878 0.026479255 0.008678142 -0.004047667 0.021973157 0.013200437 -0.006956293 -0.023510361 0.031060895 -0.027784595 -0.009485786
纯动能钻地弹	0.01216884 0.029034145 -0.01194429 0.0078110388 0.0022197112 -0.004605109 -0.015574687 -0.0029617257 0.026383722 0.013373834 -0.008701068 -0.015809735 -0.011886058 -0.02336265 -0.022710592 0.017681189 -0.018234698 -0.019939043 0.009890983 0.0076578413 0.013285871 -0.022582047 -0.0138260545 -0.023408437 0.004399317 -0.028758302 0.013493656 -0.005261262 -0.011185906 0.011920556 -0.03146175 -0.023131132 -0.00461886 -0.006202712 -0.034156114 -0.0098263305 -0.0017079692 0.007192406 0.026825164 0.013154023 0.026085258 0.012863609 -0.013134984 0.020132342 0.024653712 -0.0055176495 -0.021910327 0.015278111 -0.01699914 -0.008779128
侵彻试验	0.028074853 0.03906392 -0.019071084 0.015485659 0.014660154 0.0086101685 -0.025428928 -0.003359054 0.040457096 -0.0004782307 0.00022884531 -0.014316334 -0.004592611 -0.018042145 -0.02340424 0.01941228 -0.011457658 -0.017312143 0.016070483 0.00580467 0.026314288 -0.014826151 -0.006489245 -0.020824622 -0.0051608705 -0.014993716 0.017526273 -0.0053224703 -0.020891111 0.022316629 -0.022597305 -0.021933937 -0.0037865874 -0.0063084103 -0.03838989 -0.02924858 -0.001384151 0.0051511233 0.027947849 0.0017003627 0.015967226 -0.0005750721 -0.019907298 0.020980287 0.01944658 -0.009112386 -0.026730945 0.03219706 -0.030601617 0.00351591
试验	0.014863391 0.021940337 -0.0047974526 0.0162699 -0.0034917155 -0.0043195933 -0.015898373 0.00066479295 0.023595098 0.0002121993 0.006957455 -0.022644352 -0.0019450801 -0.014648692 -0.008948224 0.015425591 -0.013124432 -0.019037196 0.008626772 -0.004453883 0.010350843 -0.017916093 -0.0037297416 -0.020878155 0.0038847853 -0.016233893 0.008432104 0.000367777 -0.0134793725 0.014393518 -0.027572276 -0.015023922 -0.0032738922 -0.0069877706 -0.022025527 -0.017738555 0.011286975 -0.0003413169 0.030013569 0.0034464758 0.024710389 -0.003438399 -0.018674979 0.013962439 0.015555667 -0.016525507 -0.01183957 0.015333246 -0.014153198 -0.004348686
基本	0.018159717 0.022780577 -0.019975854 0.013597844 0.00025878128 0.0049178703 -0.019359801 0.00049676513 0.026324987 0.005229556 -0.008053082 -0.01843259 -0.008675922 -0.0125162285 -0.0117182685 0.009154854 -0.013765265 -0.014091491 0.0144151375 -0.005810534 0.010212774 -0.018203756 -0.0084489845 -0.010916763 -0.0031521593 -0.007414532 0.018702036 -0.0059464956 -0.019100651 0.005443745 -0.014334401 -0.01926313 -0.009616282 -0.013030857 -0.023343163 -0.015423538 -0.0010858165 0.0028382407 0.020331876 0.015374494 0.024388134 -0.002748877 -0.009961175 0.012041254 0.01067994 -0.009366462 -0.008487447 0.02729696 -0.0069350237 -0.008800742
状态	0.018115737 0.043085232 -0.025873637 0.01632952 0.011914673 -0.0043425835 -0.017175285 -0.0032029129 0.040789966 0.011505355 -0.0055950433 -0.021001212 -0.0038779555 -0.015645571 -0.01346675 0.0042698225 -0.01475043 -0.021713719 0.0016973468 -0.005659767 0.02280469 -0.0217661 -0.015015585 -0.028428279 -0.011875036 -0.015579894 0.021121465 0.008235115 -0.008969936 0.024672275 -0.031517547 -0.030185476 -0.012151685 -0.005187936 -0.021873387 -0.020589577 -0.002564496 0.009100061 0.038298197 0.00032057095 0.0141536 0.013186799 -0.017360298 0.027219277 0.01665544 -0.01935759 -0.023902215 0.030038584 -0.028424507 -0.011594642
为	0.02759387 0.03702391 -0.028610434 0.009865724 0.00031074797 0.012246676 -0.016023533 -0.011601946 0.035863563 -0.004213089 0.003111817 -0.0136238225 -0.01081287 -0.023927089 -0.025389902 0.018760003 -0.018372998 -0.016832441 0.012085066 0.004506596 0.02473469 -0.014080368 -0.016969932 -0.030463256 -0.013220185 -0.021299327 0.029460074 0.0004538656 -0.024581274 0.013299462 -0.018069787 -0.014818365 -0.014637134 0.00058356556 -0.03844511 -0.020665579 0.008668041 0.00055652356 0.030977186 0.017245831 0.025111176 0.014979239 -0.007898666 0.021825524 0.028430698 -0.014784888 -0.02578841 0.024242917 -0.017216627 0.0025688
：	0.003750205 0.024297683 -0.009003616 0.009811551 0.0025185773 0.00836169 -0.021904219 -0.004614637 0.020544775 0.0016180564 -0.007336788 -0.005784349 -0.0116858715 -0.01664175 -0.009388969 0.013026828 -0.0029370356 -0.003725796 0.01111552 -0.009487585 0.017027827 -0.014209932 -0.012043934 -0.018101083 0.0031464975 -0.004935073 0.010345567 -0.003980278 -0.0019331226 0.010878217 -0.009464404 -0.0039894185 -0.0030715535 -0.0070964154 -0.015540915 -0.0149473585 -0.0018647594 0.0038684774 0.022395082 0.010426595 0.019213742 -0.0014335122 -0.013442218 0.010908251 0.009265184 -0.011441235 -0.016207576 0.008596267 -0.0025230702 0.00041005402
弹丸	0.0075866967 0.03218123 -0.016330928 0.016244307 -0.0032189821 0.009854055 -0.023667326 -0.0125798015 0.032211497 0.003438401 -0.008863069 -0.013845373 -0.011059668 -0.018323833 -0.019212496 0.0057720523 -0.0016666708 -0.019861642 0.011846686 0.0104370415 0.019131245 -0.022780208 -0.024300132 -0.026470076 0.002085511 -0.024537494 0.01538792 -0.0049596783 -0.023095716 0.025967242 -0.025323668 -0.026943477 -0.011880651 -0.010590211 -0.027039275 -0.010210366 0.012164789 0.007882591 0.020604167 0.0020992223 0.024697067 0.0038841541 -0.009332739 0.020042857 0.018197015 -0.015252595 -0.015587385 0.020889109 -0.012365404 0.00049537665
质量	0.010716387 0.016372971 -0.01964927 0.004713457 0.010508517 0.008555924 -0.005470951 -0.016615195 0.017721634 0.0063185846 -0.0057884515 -0.0046675187 0.0039921547 -0.015543619 -0.014129838 0.012556009 -0.006876677 -0.0066659735 0.0061986465 8.167579e-05 0.018152876 -0.022537114 -0.009500696 -0.023652855 -0.0045019872 -0.0064427853 0.008579714 -0.0043807398 -0.012534584 0.017812166 -0.028143357 -0.015070357 -0.013459086 -0.0032773041 -0.020640308 -0.014600985 -0.002046351 0.002984094 0.02750235 0.009688813 0.008213028 0.003730883 -0.017807785 0.01862431 0.011905727 -0.016389616 -0.0148902 0.015592904 -0.015517507 0.005366257
NumG	0.017201742 0.021533882 -0.008780734 0.0004979352 -0.00047364226 0.0024147127 -0.0025296488 -0.0040036673 0.02683189 -0.0062947343 -0.00042252737 -0.01664441 -0.0032587585 -0.020162143 -0.010939809 0.014039542 0.0025384882 -0.0019709752 0.007608567 -0.0022257906 0.0040329336 -0.019256879 -0.0037051546 -0.022584142 -0.0016074228 -0.022827176 0.0026640275 0.006009463 -0.00818174 0.010213406 -0.012232698 -0.013500264 -0.010536132 -0.003837406 -0.0068349917 -0.016725862 -0.0035531847 0.0067920736 0.011966784 0.015645169 0.011661836 0.009722149 -0.000211557 0.012167418 0.014511287 0.00048810928 -0.011126362 0.010394069 -0.011389973 -0.009664619
直径	0.0019401351 0.027831629 -0.002896321 0.009286893 0.012727777 -0.00010762948 -0.00810144 -0.002462021 0.018748265 0.009726404 -0.009372455 -0.007254736 0.0023770116 -0.025328545 -0.019570189 0.0049922885 -0.013162444 -0.009961277 0.01111419 0.002111639 0.020845797 -0.017338546 -0.016507095 -0.027514298 -0.0017318869 -0.011302805 0.009307898 0.0073748366 -0.014823888 0.006822807 -0.008984491 -0.01802586 0.004650015 0.0011266979 -0.026621182 -0.020184627 0.003415866 0.002879876 0.01887154 0.005466328 0.017910128 -0.0044512046 -0.01792697 0.0058505745 0.0073291855 -0.00808215 -0.012143797 0.02144496 -0.0055244775 -0.004469471
125	0.01592019 0.011067463 -0.010575465 0.009717239 0.008548589 0.00614037 -0.008308339 -0.003157078 0.014572958 0.00407807 -0.008091739 -0.0062751314 -0.012939226 -0.008120465 -0.002630893 -0.0014770149 0.00303626 -0.0021449882 0.0008528241 0.0012871136 0.015734317 0.0005486263 -0.01279133 -0.014852374 -0.0025997786 -0.014263525 -0.0015548111 0.0051819626 -0.016315991 0.0107499 -0.018873444 -0.017188156 0.004549061 -0.0025941227 -0.016862947 -0.010414986 0.008617031 0.002268231 0.017907899 0.0037279786 0.0001999374 -0.0041065915 -0.005649788 0.013682564 0.0042995485 -0.011628016 -0.0031038355 0.0024065578 -0.014982748 -0.0056745117
mm	0.008026915 0.021081455 -0.010089619 -0.0015848358 0.009841422 0.004355442 -0.021445747 -0.014559259 0.03068787 -0.0007421256 -0.0052421605 -0.016334418 -0.010843434 -0.024677921 -0.007068213 0.0043054787 -0.0076618074 -0.0028054533 -0.002573613 0.0017169683 0.0053545167 -0.011124259 -0.01021871 -0.00631298 -0.0117461365 -0.009951937 0.012128033 -0.0013585046 -0.007121608 0.0010282026 -0.025818538 -0.0057709557 0.004960194 -0.013616337 -0.008724982 -0.019613266 -0.002919796 0.0043912935 0.025304526 0.007670214 0.020742683 -0.004031803 -0.0050103846 0.0062673865 0.009079453 -0.011582371 -0.023267362 0.011424639 -0.01434311 -0.008619219
要求	0.005832423 0.028728684 -0.017317813 0.0132908905 0.0021518976 -0.0032630027 -0.020601647 -0.0042714165 0.026868992 0.0032530804 -0.010920022 -0.012200049 -0.0020061382 -0.0123672 -0.02282592 0.0006418203 -0.009259322 -0.007530486 0.011187547 0.009069808 0.017001443 -0.003687026 -0.004542256 -0.009751172 -0.012425157 -0.009013435 0.00962067 0.007521805 -0.0007909951 0.0043820916 -0.025192799 -0.017581725 -0.00496995 -0.00059328537 -0.01023943 -0.016549217 0.008486483 -0.0070107244 0.02997052 0.011769857 0.0072507905 -0.00096202013 -0.016278746 0.021010337 0.005967318 -0.017216558 -0.014622565 0.013064823 -0.016642254 -0.0058160573
着靶速度	0.0059599206 0.032374784 -0.0060321814 0.014827467 -0.004449277 0.0057825795 -0.022976484 -0.0067323884 0.021275083 0.003426578 -0.003904748 -0.016265007 -0.011381265 -0.008553374 -0.008207948 0.00034621812 -0.01613659 -0.0037286205 0.0045224605 0.0059481747 0.022847727 -0.012575493 -0.020350067 -0.017690435 0.0023524123 -0.022079531 0.023172515 0.0025620623 -0.005904855 0.021352405 -0.01280266 -0.020447709 -0.002325488 -0.005116905 -0.018621342 -0.020903004 -0.002930668 -0.004692647 0.015442807 0.014939028 0.02340108 0.003915946 0.00054962427 0.013146018 0.009331513 -0.0154369185 -0.012236126 0.016749838 -0.014958704 -0.00037657615
560	0.020993875 0.031631023 -0.017903553 0.004633452 0.010711587 0.0016164134 -0.025288804 -0.014777188 0.036049206 0.008695294 0.0019579898 -0.020798549 -0.009001135 -0.022800324 -0.01964698 0.0059700627 -0.019278033 -0.00349127 -0.00063424394 -0.0018496772 0.014398076 -0.016394846 -0.020747615 -0.025152216 -0.0013028008 -0.024878992 0.008317438 -0.004568232 -0.016302662 0.014997005 -0.025304597 -0.012961433 -0.010519794 -0.0118531 -0.015797796 -0.011400752 -0.0047791256 -0.0049896496 0.026367776 0.015908398 0.013174651 0.0085347 -0.010962805 0.016195338 0.020427946 -0.017990757 -0.015564475 0.012720307 -0.023595065 0.0013091165
m/s	0.010741189 0.025086695 -0.003617117 0.0068954285 0.004008806 -9.704708e-05 -0.009287035 0.00096603134 0.017046383 0.0056175874 0.005675536 -0.0086911945 -0.007131523 -0.015732465 -0.017883344 0.0023076457 -0.01012448 -0.01723449 0.013042784 -0.006642506 0.011477486 -0.019140871 -0.007110029 -0.015724115 -0.007022526 -0.016151257 0.015822789 0.008230365 -0.008505582 0.016956527 -0.02049374 -0.018060412 -0.0014607819 -0.003195329 -0.010325957 -0.0040373476 0.008136907 0.009765205 0.021480136 0.0002575073 0.0033918475 0.002426945 -0.006837183 0.010172585 0.0018078042 0.0029009394 -0.0150335515 0.0046037077 -0.012721563 -0.0036374116
混凝土靶	0.0072404677 0.030881785 -0.0125061935 0.018873535 0.000615513 0.0022218043 -0.023630703 0.00090602186 0.023070587 -0.0047586206 0.006856476 -0.0035442528 -0.014746854 -0.0135865 -0.020348469 0.0011994581 -0.011901606 -0.010723513 0.0040496844 -0.0011090412 0.022091182 -0.01547264 -0.010596154 -0.012481105 -0.0058853733 -0.016687239 0.020335887 0.007513146 -0.012845506 0.018019881 -0.017710576 -0.012834197 -0.014129564 -0.008509369 -0.013429426 -0.010183732 0.011263435 0.0029549587 0.020118633 0.0010143472 0.012371173 -0.00049949833 -0.008152689 0.009824623 0.014441658 -0.018836355 -0.007199903 0.019867562 -0.013425741 -0.0072192093
C35的圆柱形素混凝土靶	0.014680532 0.025198644 -0.014384128 -0.0004154015 0.006009255 -0.0072362805 -0.0015158172 -0.0149375005 0.017140592 0.005578752 -0.009521485 -0.014701686 -0.013899074 -0.005394861 -0.0031524422 0.009678955 -0.00028762498 0.00058985886 0.0044173575 -0.004409297 0.00804389 -0.0023342567 -0.01569135 -0.013717071 0.0010561452 -0.012573782 0.0033173026 0.007938249 -0.015854303 0.0039609666 -0.017402565 -0.013443578 0.007103173 -0.0064874357 -0.0082805995 -0.0061412863 0.008297254 0.0045553152 0.024765342 0.008916945 0.0005396451 -0.0047185863 0.00079258555 0.0066069495 0.010687714 -0.0062303524 -0.0015483561 0.010391385 -0.014007639 0.008691609
靶面直径	-0.0040599294 0.014819773 -0.0005623299 0.0129750585 0.0022825808 -0.0031092402 -0.008735202 -0.0008448095 0.009933004 0.008002207 0.0014259425 -0.0009559252 -0.0034077424 -0.015949072 -0.011787463 -0.002522219 -0.0039450405 -0.0016969492 -0.0022323395 0.002834315 0.007076574 -0.013667205 -0.008670573 -0.00865195 0.003931735 0.00023817594 0.011960502 -0.010185091 0.0039517935 0.013782167 -0.0040160553 -0.015897159 -0.0036267801 0.002497936 -0.0056136707 -0.013974733 0.00809192 0.0018208195 0.016760083 0.009114352 0.00018469497 0.006568545 0.0017122712 0.0009214873 0.013435863 -0.006013123 -0.0055818376 0.018140625 -0.008418914 0.0066968636
2.4	0.017705033 0.03293982 -0.022041693 -0.00075168634 -0.0030546612 0.00047805882 -0.020648554 -0.0055005 0.017269963 -0.0012502277 -0.009811129 -0.011678473 -0.008088126 -0.011657517 -0.017402308 -0.0019133106 -0.009680749 -0.0013378955 0.0015859926 0.0043243305 0.0145983845 -0.005587406 -0.02041861 -0.023486594 -0.0006227921 -0.015882023 0.01644132 -0.004731124 -0.006568086 0.004821901 -0.022705816 -0.020593148 0.0040324973 0.0014582047 -0.025328435 -0.008745608 0.011133973 0.009349476 0.023455275 0.015956124 0.009938191 -0.004731203 -0.0025517368 0.018195456 0.013066327 -0.01147762 -0.010945489 0.015643945 -0.022405334 0.0002864405
m	0.015237258 0.040402256 -0.018472897 0.003983172 0.012662711 0.0030316615 -0.027478738 -0.010991857 0.036388934 0.014067713 0.007023294 -0.007703069 -0.00027408786 -0.02080073 -0.016047016 0.011788807 -0.0009166577 -0.015553142 0.0034747582 0.0024748917 0.016078683 -0.023144875 -0.02089805 -0.0325385 -0.001532003 -0.028290216 0.013540774 0.0034319048 -0.021711662 0.020408288 -0.02380854 -0.024167988 0.003256909 -0.009888627 -0.024724966 -0.020125143 0.0005299055 0.0020423569 0.019905882 -7.08553e-05 0.01864202 0.013030538 -0.020665184 0.025757069 0.021428486 -0.022155842 -0.011346632 0.031511195 -0.017071204 0.00021811294
长	0.0076946937 0.033668157 -0.017151129 0.007312675 0.008697875 0.012440459 -0.010844024 -0.018869178 0.02692584 0.014253688 -0.004215094 -0.022337917 -0.012778119 -0.021062987 -0.023946224 0.0033379262 -0.009374252 -0.020870173 0.0061539873 0.00882607 0.0062567336 -0.021412166 -0.007211148 -0.012777661 -0.00040047066 -0.01679282 0.019964067 -0.007909468 -0.021797156 0.020272724 -0.014272953 -0.023385284 -0.0039998973 -0.0023037938 -0.029164407 -0.010380621 -0.00034882422 0.0069660135 0.02678557 0.0090287505 0.012428388 0.015535571 -0.00932727 0.019331656 0.022321045 -0.01886877 -0.013383219 0.01802407 -0.007690441 -0.0011058458
4m	0.010795595 0.027456172 -0.012939573 0.010821601 0.002652634 0.00929687 -0.007621054 -0.0018190952 0.025399942 0.008506132 0.0005140111 0.00042304574 0.0036592148 -0.00829158 -0.0021861116 0.008724636 0.0029089472 -0.014172383 0.009306088 0.0014113904 0.019406896 -0.009691159 -0.01452282 -0.0115736965 0.0006952274 -0.007136748 0.016158478 0.004151077 -0.01645164 0.0044663018 -0.017338432 -0.0032686468 0.0037152502 -0.008166372 -0.010433543 -0.0107196765 -0.004373669 -0.00080538396 0.010109328 0.0068582334 0.018690797 -0.0027606045 -0.001428147 0.0033169433 0.005982732 -0.015973167 -0.00754598 0.010353046 -0.020196 0.0028997306
靶体密度	0.019277843 0.015224276 -0.02137209 0.007753197 -0.0019154751 0.00072425534 -0.02308271 -0.01520448 0.032335583 0.012679169 -0.010335861 -0.009721463 0.003599923 -0.004949588 -0.011034599 0.010299777 -0.013466163 -0.010315848 0.015379319 -0.008437801 0.005073944 -0.013416107 -0.0028243866 -0.026725866 -0.0030540742 -0.017791793 0.00884171 0.0040470855 -0.0057653585 0.015144789 -0.012632151 -0.0111521715 -0.009087281 0.0033286484 -0.014514222 -0.021135649 0.011450419 -0.0065023154 0.011705739 0.0010961379 0.017054299 0.0022519887 -0.010214914 0.0043904088 0.01684888 -0.00745933 -0.022687556 0.010058555 -0.023071717 -0.005697192
2360	-0.0008456412 0.016729904 -0.0051484746 0.0062486283 0.0001983897 -0.0074565005 -0.00661321 -0.011398788 0.023792963 -0.0032443115 0.002341825 -0.0062782294 -0.0072509497 -0.006068077 -0.016346393 0.005976699 -0.008220566 -0.013828847 0.01057104 0.010591338 0.014685755 -0.0120973615 -0.013631119 -0.011382637 -0.0019925246 -0.0031024627 0.014325801 -0.008239896 -0.009596291 0.008236825 -0.0037438273 -0.0032373131 -0.010772689 -0.009507844 -0.023512196 -0.006058821 -0.0067815967 -0.007237681 0.020922823 -0.000543189 0.006032172 0.0039038523 -0.005665404 0.0014232872 0.014747752 -0.0022637853 -0.0063487384 0.013837582 -0.0017763213 -0.008378235
kg/m3	0.019018777 0.019517893 -0.012518488 0.013101753 0.0007779635 0.009380956 -0.008152585 -0.015979879 0.028973494 -0.0022397265 -0.00236134 -0.012311179 -0.010553478 -0.013199338 -0.016129738 0.008582969 -0.016376521 -0.015440214 -0.0019331679 -0.0031233493 0.018049004 -0.011407906 -0.0015500279 -0.018298145 0.004481253 -0.021471169 0.0015946425 0.005623977 -0.015110195 0.014790279 -0.01710025 -0.0057891114 -0.010551282 -0.012170993 -0.024279345 -0.016505389 0.00079295796 -0.005526198 0.02231104 0.012739002 0.004459662 0.014657592 -0.0053504054 0.020271564 0.018416759 -0.012047314 -0.01010108 0.013685378 -0.015842766 -0.009109204
。	0.0029197535 0.025839245 -0.012398267 0.011220092 0.0025424655 0.0034959968 -0.01447828 -0.009449367 0.03400317 0.0025732103 0.007956406 -0.0026021968 -0.008884416 -0.011063922 -0.013523628 0.0009323495 0.0015140045 -0.017428441 0.01364804 -0.0012134549 0.0123863965 -0.01550279 -0.0075972374 -0.014310231 0.00089723215 -0.012959747 0.021203833 -0.003249581 -0.0069353874 0.02212167 -0.022201356 -0.015885867 -0.012473491 0.00459145 -0.030423604 -0.011921127 -0.0035201125 -0.0066352594 0.012232363 0.01459792 0.02179368 -0.0014980707 -0.003141007 0.005548378 0.020901155 -0.019401034 -0.008569212 0.015642753 -0.019924106 -0.011246289
中	0.013017211 0.026298111 -0.0045939847 0.002687188 0.010720519 -0.002230893 -0.01913524 -0.011562765 0.033643965 0.00641204 -0.00089012855 -0.0034046946 -0.0048786197 -0.01699516 -0.020374311 0.010045317 -0.0003546604 -0.001121343 0.011205118 0.009318179 0.010533273 -0.01904049 -0.01674023 -0.01966056 -0.0013517203 -0.024754157 0.019810548 -0.005729568 -0.0028283177 0.0036086342 -0.025120307 -0.0036271194 -0.011173792 -0.0072676423 -0.017307805 -0.016293973 0.004413 -0.010059439 0.01470814 0.011708063 0.01637988 0.013203595 -0.011728249 0.015456976 0.022063926 -0.0014746673 -0.024692606 0.024683388 -0.022583611 -0.008464632
实际	0.007220926 0.013642227 -0.0014628387 -0.0013023436 0.0043120435 -0.0004125775 -0.012208256 -0.003118455 0.023181248 0.009072656 0.0021008449 -0.006978793 -0.010068277 -0.012188182 -0.017700907 -0.0030632603 -0.0068525607 -0.011392494 0.010483142 -0.00709468 0.006183121 -0.0065953545 -0.014615045 -0.016007286 -0.013289337 -0.02150954 0.01908674 -0.0020009351 0.00039071005 0.009209596 -0.01690455 -0.011052445 -0.009735689 0.0030880263 -0.018673774 -0.018681353 -0.0025145784 0.0038627884 0.017011996 -0.0041380646 0.005281962 0.010744143 0.00055788533 0.019684887 0.019198753 0.00024916226 -0.013114039 0.0050851163 -0.007965204 0.005806637
563	0.002948814 0.015129533 -0.013675481 0.011138101 0.0072867703 0.0039770533 -0.0123083955 0.000222956 0.02223967 0.0029217526 -0.0036201612 -0.012667359 -0.0024693103 -0.015407961 -0.0034287937 0.001342015 -0.01387655 -0.0069903894 -0.0029318656 0.008769625 0.00598177 -0.016045643 -0.000708098 -0.0007952533 0.0036262425 -0.0131716905 0.016523099 -0.004830797 -0.0022312845 0.016357131 -0.0051219645 -0.0031477634 0.0026764844 -0.000497037 -0.013722724 -0.0071802293 0.009104204 0.009575509 0.0102960095 -0.0027441082 0.010881973 0.012201809 0.0022201946 0.0025101812 0.014653977 -0.005969449 -0.010680451 0.016439872 -0.008231798 -0.008220915
锥形弹坑	0.013488408 0.03256442 -0.020552851 0.012752283 0.0076332483 0.002874501 -0.019488279 -0.0168086 0.0355272 -0.00048650627 -0.005467846 -0.006895161 -0.00922387 -0.020248018 -0.0038021156 0.0009000215 -0.012086304 -0.016873803 0.004884964 0.0070781196 0.010359149 -0.020174613 -0.017651388 -0.02169823 -0.004006243 -0.015779637 0.013107602 -0.0008126728 -0.017045785 0.009201953 -0.011019459 -0.0070328424 0.0020816366 -0.0140477475 -0.010384539 -0.021162339 -0.0014699295 -0.0045881667 0.025073946 0.0106145255 0.009215854 -0.0034896203 -0.0122930845 0.006610531 0.0064630173 -0.019648831 -0.012927373 0.0104766255 -0.022129253 0.002944523
深度	0.010834855 0.037208468 -0.021030782 0.018089257 0.0048933467 0.011691876 -0.009484737 -0.015948592 0.028340533 -0.0046819616 0.00424407 -0.022035789 -0.0011823846 -0.010179175 -0.01646524 0.012493389 -0.012330287 -0.013961251 0.0005295224 0.001986244 0.011324113 -0.015106285 -0.019566927 -0.026944468 -0.01065448 -0.018257203 0.024501761 -0.011507887 -0.009664056 0.023152784 -0.01356825 -0.0053887707 -0.009089747 -0.011597656 -0.020193983 -0.025070952 0.011935752 0.0025090477 0.025556266 0.016243905 0.026418718 0.016193753 -0.0070390487 0.011164715 0.011328195 -0.019728065 -0.022220723 0.021315085 -0.024590686 -0.011483207
499	-0.0002089011 0.021572009 -0.015298579 -0.0014239335 -0.0017292345 -0.0033899213 -0.016548483 -0.015402713 0.02752112 0.003390337 -0.0118086105 -0.018424962 -0.0141227925 -0.019731833 -0.010173316 0.008048364 -0.003810701 -0.015157694 -0.003628688 0.004723902 0.018969014 -0.010291052 -0.0030267357 -0.011715061 -0.0066958913 -0.014731524 0.0091467295 0.008272033 -0.01317369 0.015743688 -0.0059314547 -0.0133637795 -0.012718062 0.0023072322 -0.024835883 -0.021671632 0.0015376138 -0.008040156 0.026808122 0.0074600126 0.004643477 0.0032906814 -0.012781014 0.018672151 0.009574565 0.00023353097 -0.018423472 0.008085443 -0.0020147138 -0.0010251739
侵彻深度	-0.00024657318 0.027784197 -0.007869273 0.0118571725 -0.002108722 0.0060261865 -0.020292524 0.0023326927 0.010078053 -0.004812104 0.007818085 -0.008269048 0.001045809 -0.01594668 -0.016928641 0.0016744945 0.00030085552 -0.004982253 0.0025981804 -0.0061251638 0.008165157 -0.01010498 -0.01702065 -0.024499737 0.00044032407 -0.012997621 0.016367303 -0.0006167012 -0.0023883036 0.001885133 -0.018926362 -0.00064463785 0.004145706 0.00588539 -0.009907217 -0.0077214963 0.0028595487 -0.0085639395 0.023227502 0.013806608 0.013746374 0.0062379795 0.0016515341 0.0022955798 0.014332423 -0.002613214 -0.01797814 0.01345262 -0.02049483 0.0052587795
1507	0.01136951 0.019909443 -0.009810029 0.009826901 0.0054194774 -0.0001420357 -0.020168541 -0.006136715 0.025752425 0.0036815188 -0.011075826 -0.0090459045 0.004017334 -0.004921753 -0.018135065 0.0005380694 -0.0014213232 -0.017750284 0.0025685185 0.0010873438 0.02170593 -0.019872764 -0.009917307 -0.0195127 -0.0010114264 -0.008276812 0.01479773 -0.007961277 -0.0038821849 0.001102701 -0.006354416 -0.008097423 -0.012017142 0.0016117383 -0.017008051 -0.016297365 -0.0079967445 -0.0065997 0.017892001 0.010185541 0.017077157 0.014274807 -0.009449494 0.011699585 0.008168357 -0.007252034 -0.006632826 0.023455897 -0.017497586 0.0041504772
设计	0.0229826 0.037447076 -0.02162518 0.00570621 0.0013259503 -0.0047237007 -0.024579987 -0.01250407 0.028285174 -0.0019170704 -0.011436476 -0.013926328 -0.004890708 -0.027274502 -0.029011218 0.003617904 -0.012671699 -0.004858895 0.003972171 0.010963603 0.013833384 -0.02036202 -0.020184224 -0.016691888 -0.0144286845 -0.015459911 0.023492755 0.0052872105 -0.014654743 0.025549818 -0.024130167 -0.014548603 -0.011910096 -0.016574763 -0.023644755 -0.02440314 0.00381113 0.00021959409 0.0360886 0.014034371 0.021399273 0.0007163823 -0.0025600344 0.02773791 0.012175442 -0.015062675 -0.028573144 0.031087425 -0.026534691 -0.005622079
上	0.012249864 0.0127988495 -0.009756732 0.013851937 0.00806921 0.008901805 -0.016863365 0.0042152875 0.014193399 0.0066757137 0.0076823244 -0.014885211 -0.004445701 -0.0032722838 -0.007111354 0.005902504 0.002943633 -0.008399675 0.0135529125 0.009055548 0.004659142 -0.00801556 -0.0031468763 -0.00569901 -0.011120069 -0.0069664964 0.016917713 -0.007940647 -0.0017060215 -0.00264972 -0.009689748 -0.012736905 -0.010722409 -0.0025653115 -0.016148964 -0.002727323 -0.0012165918 -0.0014062497 0.013829255 -0.0016316747 0.010586053 -0.005983141 0.0021584204 0.016305119 0.01622626 -0.013715107 -0.00043958938 0.0029236819 -0.010162963 -0.0022932196
装置	0.014474332 0.023891889 -0.0026769498 0.0008712546 0.0058167893 0.008223831 -0.013458036 -0.008560717 0.015187598 0.009082253 -0.008128776 -0.002331037 -0.00683828 -0.0062333574 -0.008603048 -0.0051581734 -0.00043957206 0.0035748777 -0.0012305673 0.0011482106 0.0033917213 -0.0031104165 -0.013669922 -0.02140792 -0.010425904 -0.002181017 0.00047461913 -0.0043170806 7.163322e-05 0.012843729 -0.012430574 -0.0020948632 0.0023960378 -0.009417885 -0.014062299 -0.016656633 0.010396843 -0.0049098427 0.015569247 0.0041954764 0.017312247 0.01034814 0.00161758 0.0008292627 0.011324168 -0.00288896 -0.0011244841 0.008277333 -0.01303068 -0.011638641
能够	-0.00058563723 0.023718532 -0.00717774 0.0040247855 0.0043792645 0.0111124655 -0.011233987 -0.0102984775 0.029215593 0.001995797 0.0063517615 -0.013400788 0.003937547 -0.008255286 -0.007424448 0.001289092 -0.0027498747 -0.012448625 0.0032973723 0.009219 0.008336706 -0.01317232 -0.017036933 -0.018954676 -0.00048755994 -0.017827265 0.0060890927 0.0033084431 -0.008715318 0.019122064 -0.02048887 -0.019602327 -0.000940467 -0.0038568347 -0.023302637 -0.014198569 -0.00022013686 0.00842237 0.02339297 0.009598561 0.0040195677 0.0132647175 0.0016664134 0.015570061 0.013323383 -0.015941419 -0.017107766 0.018043172 -0.013799034 -0.008074848
在	0.015356093 0.024180409 -0.017845472 -0.0016234943 -0.0032159681 0.009187955 -0.0071874065 -0.013086836 0.024892135 0.010055896 0.0011956461 -0.010604102 -0.011147947 -0.014298094 -0.0027144023 0.01101519 0.0027894597 0.0010353839 0.011026487 0.008584693 0.005204848 -0.0027376607 -0.014279544 -0.0068591502 0.0028000076 -0.005333653 0.015183278 -0.0026461466 -0.006347639 0.016511628 -0.017207794 -0.012810862 0.0044738785 0.0017881563 -0.008469956 -0.00084715267 0.008737771 -0.007098086 0.021431562 0.009772344 0.01594868 0.012821133 -0.0010023058 0.0013829123 -0.0012156029 -0.015623413 -0.0076879836 0.01032426 -0.011522195 -0.008053456
过程	0.0027111438 0.018235927 -0.008201179 0.009337787 -0.0023587993 0.00034603738 -0.0028215 0.0014705246 0.014732862 0.013089498 0.0044250255 -0.00018351874 -0.0032307142 -0.00919118 -0.010468643 0.003321556 -0.0072528347 -0.012392992 0.014232058 -0.00747784 0.00559232 -0.0035524834 -0.0029602537 -0.011528867 0.0052981 -0.015731443 0.012882722 -0.007011683 -0.0038318648 0.01765732 -0.017656798 -0.013885304 -0.005758587 -0.009719954 -0.023269948 -0.006976255 0.010763472 -0.0021365678 0.021019543 0.0021588376 0.0013252052 0.006215468 -0.007877617 0.018801017 0.015320244 -0.010162342 -0.0045230375 0.017213067 -0.01552823 -0.009321104
提供	0.018302375 0.02950052 -0.0069907033 0.005911752 0.0098846555 0.011985914 -0.011951793 -0.016962286 0.028911447 0.009297876 -0.0024409974 -0.0053622173 0.004017018 -0.01716261 -0.010867886 0.0038582229 -0.0027296788 -0.014121489 -0.0027927682 0.010207612 0.021370947 -0.012702287 -0.014999831 -0.026823156 0.00013261188 -0.016107213 0.014798899 0.0035449935 -0.01577868 0.019508932 -0.013271908 -0.005847243 -0.006381865 0.003326227 -0.010725287 -0.014392288 0.0021333036 -0.0077223373 0.019767595 0.0074912817 0.019226404 0.0087905405 -0.017526096 0.007286402 0.006398911 -0.009044513 -0.014647241 0.024853433 -0.01531628 -0.007793346
很大	0.008901715 0.011406694 -0.0019531032 -0.0034299318 0.0056685386 0.011050295 -0.008298649 -0.011153224 0.013595497 -0.00010022527 -0.002330356 -0.004215488 0.006628832 -0.0010371392 -0.0053420383 0.003811615 -0.013446025 -0.007830154 0.003504265 0.0011101789 0.013396451 -0.010639738 -0.009462123 -0.018121792 0.0065371785 -0.015417467 0.0012592162 0.008341998 -0.004894009 0.013558963 -0.0038503427 -0.00011584731 0.0024829619 -0.008988511 -0.0066708485 -0.006234565 0.011011588 0.0019248688 0.009670483 0.010792261 0.013332466 -0.0059910533 0.0018770029 -0.0014272666 0.010086122 0.0013145949 0.0013060473 0.016888173 -0.013356015 -0.0051102918
推力	0.01649608 0.022815248 -0.0051238104 -0.002852059 0.0053672506 -0.0011175255 -0.0140409935 -0.007102821 0.023292432 -0.0034646187 0.00348899 -0.012715969 -0.011263727 -0.003388037 -0.0137014175 0.010246338 0.0006297872 -0.0022089959 0.007904796 -0.003079784 0.0056500696 -0.004880071 -0.014741741 -0.0037657807 0.0030421664 -0.010941781 0.013705573 -0.011265908 0.0007588632 0.013689297 -0.007116965 -0.002323063 -0.012301055 -0.0074965954 -0.017758992 -0.012468725 0.0062885033 -0.004605644 0.017647276 -0.0060732225 0.006497732 -0.0017693784 -0.015222618 0.0057407306 0.011109798 0.003498391 -0.014076042 0.0010836718 -0.0058841053 -0.0015288224
并	0.008829423 0.009998173 -0.008853317 0.012614604 -0.0020458992 -0.00077032694 -0.0015372831 0.0024547437 0.02129494 -0.005393313 -0.00531488 -0.0010009075 -0.0008813144 -0.012051428 -0.018511122 0.0008147401 -0.007916715 -0.0008507208 0.010912019 -0.002435314 0.00029742022 -0.015353119 -0.014948174 -0.017493393 -0.011350382 -0.01627949 0.006552338 0.0036119297 -0.00022246774 0.0073223384 -0.0071151103 -0.008785703 -0.0006669527 0.005831046 -0.024900457 -0.01323993 0.011856157 -0.0022656664 0.02373534 0.00920571 0.0206918 0.011093332 -0.0069779116 0.013248852 0.00046526198 -0.0078069246 -0.015060768 0.022599181 -0.007705804 -0.010789405
推动	0.016161006 0.03004179 -0.0070396936 0.0105992425 0.009903473 0.0040457817 -0.026464453 -0.008653193 0.03305401 0.009633132 0.007246433 -0.016624311 0.0029974896 -0.015607806 -0.012166923 0.0015015049 -0.0114687495 -0.010047686 0.017327664 0.0042126244 0.014011069 -0.018505987 -0.02012239 -0.029684268 -0.009241047 -0.011388697 0.022367936 -0.005115434 -0.0056583034 0.024141232 -0.016881026 -0.019746698 -0.0034980853 0.0021332058 -0.025842069 -0.012028528 0.0019061937 -0.008039317 0.016504394 0.0038602997 0.024568407 -0.0005391312 -0.01010478 0.01057125 0.015153286 -0.021826725 -0.019411845 0.019552797 -0.015816439 -0.008074068
短时间	0.0029344494 0.022027642 -0.019306296 0.0032631007 -0.0073185405 0.0051515326 -0.014276906 -0.009322627 0.025606234 -0.0069637797 0.001687837 -0.009836721 -0.0095802685 -0.0050749043 -0.008485272 0.013436041 -0.009327698 -0.014455742 0.009314155 0.006062371 0.018050661 -0.012635989 -0.00054692384 -0.022377236 -0.0050843973 -0.0030428343 0.013129325 0.0088395765 -0.0027219001 0.01492296 -0.018272886 -0.0033368794 -0.0071083703 -0.008031308 -0.014537654 -0.01755721 -0.003650236 0.0066933553 0.018318838 0.007178333 0.007893567 0.005010583 -0.0030468577 0.007048161 0.0038643987 -0.009200675 -0.0035282467 0.013314702 -0.009618893 -0.009513372
内	0.0085222265 0.007392271 -0.009366421 -0.001707732 -0.001248679 -0.0047559044 -0.008816531 -0.008802013 0.018067203 0.00077411183 -0.009213329 -0.006930837 -0.0021179458 -0.014188459 -0.018211942 0.0055811633 -0.010618546 -0.010421293 0.0027266804 -0.001551214 0.01080114 -0.014778251 -0.008783868 -0.013151856 -0.008432602 -0.008553688 0.018020066 -0.004984367 -0.010200891 0.0059792013 -0.006704812 -0.0074129044 -0.0058312113 0.0016659423 -0.021967746 -0.0038369293 -0.008425206 -0.005747558 0.016785895 0.011327954 0.012095382 -0.0017193796 -0.004390341 6.7971414e-05 0.002662008 -0.00811006 -0.017439703 0.004000567 -0.006268767 0.0007701729
做	0.0032583624 0.012354903 -0.0009840898 0.0073102135 0.008941971 -0.0038031978 -0.00017312681 0.0019413261 0.00056448334 0.0062496895 -0.0018360553 -0.0040174057 0.002410081 -0.005322116 -0.010660724 0.0023185045 0.0041426257 -0.0096571995 0.005871604 -0.0025841813 0.006335222 -0.006653246 -0.0027460814 -0.01482201 -0.0063917874 -0.0012303083 -0.004983442 -0.005583179 -0.010595037 0.002049474 -0.015416342 -0.00017513927 0.008120954 0.00342319 -0.0044513675 -0.004477305 0.009052236 -0.00590905 0.012322884 0.0069229174 0.0010540918 0.007384251 0.0045259367 0.009760034 0.0067718234 0.0041228808 -0.008923144 0.0062804106 -0.010249266 -0.005191064
变	0.007826062 0.012780258 -0.019001883 -0.0029433072 -0.0028211935 0.0015188062 -0.01890658 -0.0035713278 0.025226109 -0.0045707333 -0.0056073265 -0.0077558043 0.0041005523 -0.008736135 -0.016455064 0.013341694 -0.006613573 -0.013820655 0.012457731 -0.0062212315 0.0086088395 -0.00983305 -0.010796289 -0.011557022 -0.010710959 -0.005787002 0.018683624 0.0056030834 -0.013297372 0.010341143 -0.014279915 -0.001960969 -0.0073994882 -0.0116532305 -0.013156998 -0.008930972 0.000833081 0.009269783 0.013375956 0.01376855 0.015249921 -0.0022546705 -0.015628876 0.018163614 0.016164439 -0.002217693 -0.00806047 0.014106004 -0.009537998 0.0016002544
加速运动	-0.0006392233 0.022429055 -0.01581941 -0.0016987056 0.011076163 0.0007342263 -0.011323902 -0.0008360095 0.024697704 -0.005505816 0.002080549 -0.0037927579 0.0037692627 -0.010804216 -0.011058011 -0.0050097355 -0.0019041199 -0.009199831 0.0008276326 0.010049309 0.0013443636 -0.000119485056 -0.012952669 -0.013029724 -0.010083892 -0.019087564 0.010039557 0.0067018806 -0.0047190194 0.01651148 -0.009038829 -0.012290379 -0.009735119 -0.004526995 -0.010834833 -0.0163644 0.008429923 0.004881721 0.004452039 0.0018943904 0.0017329375 0.010157744 0.0013284804 -0.0010563311 0.013853271 -0.006824991 -0.01793839 0.007912885 -0.0027394404 0.005051129
559	0.008736974 0.016990378 -0.011441739 0.010799888 0.0064372486 0.0012666235 -0.0031629105 -0.008360646 0.024943084 0.011956597 -0.002198544 -0.0032470564 -0.006592982 -0.01980987 -0.01741035 -0.0020184636 -0.0052845976 0.0014082476 0.00081481173 -0.005863661 0.016732056 -0.014107229 -0.009269683 -0.0106342295 0.0030502412 -0.016727688 0.0031798359 -0.0010433246 -0.0016986434 0.00050083606 -0.0114457235 -0.014125784 0.0026394287 0.0029612882 -0.018604022 -0.015621659 0.0076207705 0.006688012 0.007748284 0.01303006 0.003118509 -0.0037072618 -0.013932394 0.009312131 0.013406173 -0.002902551 -0.005514432 0.017746804 -0.019692345 0.0073777107
483	0.007674171 0.030817784 -0.005145897 0.016051598 0.009483031 0.009395658 -0.011156861 0.00018640164 0.03593269 0.0070927544 -0.0028909934 -0.0035736682 -0.0067429068 -0.011484223 -0.014134944 0.011552146 -0.017986324 -0.008504604 0.00747888 0.009034087 0.007036211 -0.01813592 -0.00544827 -0.025264991 -0.012634681 -0.025568191 0.018811932 -0.0077368952 -0.006648791 0.0164228 -0.021895325 -0.010851956 0.0035280555 -0.005450819 -0.010630767 -0.015884478 -0.0013696962 -0.006840421 0.02841252 -0.00029394426 0.009419401 0.0067565856 -0.018354129 0.010707641 0.023263112 -0.01855986 -0.010805507 0.015657106 -0.01391765 0.0023900315
1837	0.016629267 0.027807102 -0.0062901126 -0.00045627693 0.011915566 -0.0045660483 -0.02043676 -0.0137420725 0.02697613 -0.0053436286 -0.011168005 -0.019911144 -0.0120595535 -0.018476592 -0.014827772 -0.0006589183 -0.007127354 -0.0047318963 -0.0031442011 -0.008515478 0.004864602 -0.005894836 -0.0006974851 -0.01219683 -0.005802949 -0.008118325 0.009001288 0.00640962 -0.012048267 0.016499681 -0.010313886 -0.016825147 0.0052709575 -0.00082756724 -0.006749827 -0.0050570057 0.007412761 -0.004051845 0.025287855 0.00024431996 0.008839617 0.012131446 0.0007700197 0.011581112 0.008650227 -0.018104216 -0.019349705 0.007848467 -0.01471991 0.0036920963
文献	0.009839704 0.0053211814 -0.010455993 0.007683872 -0.0037648322 0.003879923 -0.016183548 0.0009463043 0.020916002 -0.0039413944 -0.007231048 -0.015714321 -0.009887451 -0.009418747 -0.014812133 0.00404537 0.0012341093 -0.008764717 -0.00073370687 -0.005441402 0.004803348 -0.017693855 -0.004056496 -0.005884305 0.0018139563 -0.003061799 0.011725355 -0.0015677942 -0.01160751 -0.0008711579 -0.017537657 -0.0066904575 -0.010679033 -0.0017503245 -0.020214155 -0.0056083505 -0.0059835743 -0.008476464 0.006493787 0.0041167084 0.0019086427 0.0063012964 -0.007608156 0.01680459 0.015862366 -0.006805247 -0.006479594 0.015949607 -0.008233912 -0.007708438
［４］	0.009592979 0.011283438 -0.011380421 0.008401236 0.0006500471 -0.009070121 -0.00902551 -0.0030158171 0.018265864 -0.0053310115 -0.0067040273 -0.003449631 -0.011208472 -0.013455267 -0.013108801 -0.0012743993 0.0059200157 -0.0031741234 0.012745877 0.007718516 0.0048646387 -0.01074179 -0.012124484 -0.008946971 -0.0050138133 -0.013874248 -0.0022910733 -0.007338168 0.0017254881 0.0030181643 -0.015771205 0.0009421893 -0.01152155 0.008036651 -0.01006968 -0.009323996 -0.009209141 0.004748682 0.011371209 0.0058021275 -0.0017570162 0.0008958919 -0.01324409 -0.0023868491 -0.0008923961 0.004446285 0.0017838436 0.00745356 -0.005039079 -0.009019367
开展	0.0030238421 0.012477039 -0.0022537862 -0.004792132 -0.005022428 -0.0068067578 0.002048824 -0.0011296093 0.006068929 -0.007494365 -0.00032297525 0.00050069665 -0.009682492 -0.0128168585 -0.012137068 0.013560024 -0.013372515 0.00063408114 0.0038233788 -0.0016267875 0.0047034426 0.0016937954 -0.0024158496 -0.011423541 0.0070438134 -0.0115321195 0.0026943928 -0.009327702 -0.008649751 0.0014524433 -0.0028230345 -0.010215051 0.0005793156 0.007436101 -0.019991757 -0.007869047 0.0077140606 0.0025128564 0.006670412 0.0023387237 0.01677788 -0.006040182 -0.00933899 0.0064851977 7.407209e-05 -0.0020872417 -0.0026963046 0.009953664 -0.013174187 0.0029615357
半球头弹	0.002680913 0.022803087 -0.0005879235 0.01257266 -0.00076169684 -0.00620005 -0.01828438 -0.005479948 0.0079904655 -0.006708958 -0.004113198 -0.0067161587 0.0011374366 -0.0083457 -0.011846544 -0.0033441747 -0.009595605 -0.008927894 0.0035690463 -0.0062284325 0.006857283 -0.010302374 0.001920537 -0.00454076 -0.0018368139 -0.0009397248 0.009072311 -0.009876521 -0.004824175 0.010640864 -0.008400546 -0.0117343245 0.0016501877 0.0042528706 -0.022855248 -0.0018613157 -0.0065151607 -0.00018184238 0.014850603 -0.004332708 0.0039816564 0.007374245 -0.008133259 -0.0010658229 0.012093199 0.0001463181 -0.0068121944 0.019013992 -0.012355378 -0.0063673947
体积	0.009653906 0.0025574383 -0.009147016 -0.004349375 0.010056077 -0.0048023146 -0.010571226 0.002328146 0.009123506 -0.006974746 0.0037898486 -0.00522525 -0.008334442 -0.009516449 -0.011789491 0.008358771 0.0003313382 -0.0115231145 -0.004430695 0.004325157 -0.0037840111 -0.010137053 -0.008227548 -0.015899288 0.0015418775 0.0018518132 0.0025805775 -0.008745717 -0.013208039 0.008459413 -0.0088617075 -0.0029929029 0.0026279842 -0.0026016987 -0.009303564 -0.009074209 -0.0021321147 0.005639202 0.012046863 0.006186238 -0.0039091525 0.004954002 -0.003611878 0.011576345 -0.0007891204 0.0035415068 -0.014883163 0.014630612 -0.0015997897 -0.008430915
含量	0.006914375 0.010840988 -0.0053765667 -0.004733476 0.0032916164 0.009700967 -0.009762705 0.0031247516 0.0087202685 0.0026874472 0.0033931662 -0.012159728 0.0019659153 -0.008156712 -0.012176092 0.009997637 -0.008087178 -0.014130564 -0.00060032663 0.009213695 0.0007614977 -0.0046217097 -0.01575043 -0.009558418 0.004771888 -0.009828424 0.009242119 0.008639215 -0.009151174 0.0148004135 -0.020353174 -0.013162305 -0.003052333 -0.012086072 -0.003570574 -0.0151151875 0.010182802 -0.0038016716 0.010242043 0.013476406 0.00901684 0.00812586 -0.012701523 -0.0020735569 -0.0018707345 -0.002974794 -0.012636471 0.011965409 -0.015077543 0.0011395903
0.0%	0.0074925916 0.015887724 0.003623823 0.012811999 0.010220456 0.009121696 -0.014340965 -0.0038906795 0.015800225 -0.0037401803 0.006196315 0.0044184797 -0.0060470686 0.0012020639 0.0018543125 0.012079232 -0.0062297 -0.0050636567 0.006680853 8.209309e-05 -0.005126245 -0.00840273 -0.0027003197 -0.00762377 0.005784555 -0.0049918857 -0.0050541125 -0.009592457 -0.003176196 -0.005629615 -0.0059705693 0.0038739129 0.0070772734 -0.010032382 -0.016491361 -0.0067069046 -0.005566058 0.006762761 0.0067301285 -0.0031632585 0.0023187066 0.0014276424 -0.00328502 0.01119466 0.007881253 -0.006993648 -0.011032571 0.010520816 -0.013612315 -0.0012557763
,	0.0049656373 0.020425564 -0.0013060716 0.014240988 -0.00639909 0.010854389 -0.00087541586 -0.004222293 0.00504576 0.00603739 -0.0046231025 -0.008853477 -0.0020147492 -0.013291819 0.0021517084 -0.005400011 0.0057891603 -0.005289067 0.006762431 -0.0075664516 0.009352661 -0.00864171 -0.0074460423 -0.017201448 0.0028436456 -0.01057562 0.0050239586 -0.0006626505 -0.0005936724 -0.00051395193 -0.008619085 -0.0102584995 0.0065095415 -0.008614268 -0.0042267693 0.0020259258 0.007334375 -0.0034816056 0.0011261551 -0.0030007944 -0.0009962106 9.3862895e-05 -0.008847864 0.0010949397 0.015513122 -0.010455996 -0.0016986994 0.018031018 -0.015059626 -0.0103481095
3.0%	0.015997468 0.0249007 -0.006017594 0.001333046 -0.006303007 0.00021609063 -0.0095674265 -0.004691758 0.022965794 0.010698795 0.007463939 -0.0004191954 0.0014502115 -0.001554819 -0.007632218 0.010578632 -0.005477284 -0.013683119 -0.0046063205 -0.0006269742 0.0023831348 -0.016331278 -0.014405432 -0.009106415 -0.007854163 -0.006135257 0.017091054 0.0014823906 -0.012393595 0.0026884212 -0.019068226 -0.0066488157 -0.0038739291 -0.0028754834 -0.010631564 -0.0013027076 0.010050211 0.0013931812 0.0090981545 0.0043242546 0.004220306 -0.0018648704 -0.0076527796 0.0012090232 0.0055020447 -0.014706136 -0.0076157614 0.0013935313 -0.013875169 0.0077455943
和	0.008965716 0.017442493 -0.013328951 0.000213481 -0.0022419458 0.0074484996 -0.0001708322 -0.010202245 0.00075023447 -0.0037489058 0.00011153366 -0.003433171 -0.007507918 -0.014777874 -0.009276326 0.012325618 0.0032268341 0.0025997518 -0.0009103076 -0.0024907542 -0.003974731 -0.013179563 -0.011773325 0.00294135 -0.0035961876 0.0040038717 0.0042054546 0.002006978 -0.007282846 0.002706702 -0.013017808 -7.960598e-05 -0.0004963536 0.0017209116 -0.013705346 -2.6824891e-05 -0.005821127 -0.00075983605 0.0046378593 0.0057089264 -0.0022819876 -0.0002443065 0.0010730852 0.0026396976 0.0048790136 -0.008532422 -0.008546322 0.0112506 -0.001158531 -0.008778168
6.0%	0.0027727636 0.021138487 0.0028734927 0.002512021 -0.0039487504 -0.0024632073 -0.0040909364 0.0034220903 0.00834292 0.009816176 0.0071051274 -0.014361658 -0.011059207 -0.005889706 -0.013620002 0.009605616 -0.010845782 -0.009715712 0.01137282 -0.008592188 -0.0015172533 -0.0035243493 -0.0081643965 -0.009090971 0.0016290662 -0.0057564126 0.006029068 -0.005507165 -0.015048165 0.0050213835 -0.0108816475 -0.0019603425 -0.012218058 0.0068141543 -0.009146171 0.0009977964 0.0033446136 -0.004605723 0.012533823 0.009419897 0.01577114 0.012125855 -0.0038356069 0.012148887 0.010517458 0.0010642451 0.0022695407 0.004154212 -0.009670343 0.0027615458
钢纤维	0.0015023916 0.017410817 -0.0014964667 0.016215695 0.006195694 0.0026801915 -0.008944475 -0.0019067542 0.02670714 0.011861776 0.0001898875 -0.012248417 -0.011386193 -0.014071537 -0.009964089 0.0021469228 -0.004662309 0.0002339909 -0.0009685258 0.010381551 0.007495459 -0.0009624716 -0.019126518 -0.013834203 0.0029597406 -0.014354584 0.01996878 -0.00045339364 -0.0026931895 0.01941538 -0.006274153 -0.0042398153 -0.0023837376 0.00097169675 -0.005971669 -0.016027924 0.0083814375 -0.0038024248 0.018322548 0.0072726035 0.0130605 0.012888045 -0.014305162 0.0026666285 0.015407939 -0.0117368745 -0.017505992 0.023239885 -0.009191921 -0.011590506
增强	0.005619838 0.0074563357 -0.015913343 0.013690095 0.005318896 0.008235748 -0.016022405 0.004384345 0.02059248 -0.0017998585 0.0058193794 -0.006997726 -0.0062368233 0.0013565233 -0.0043183244 0.0011656017 -0.0083982935 -0.0046632662 0.0008580405 0.008123391 0.013631845 -0.009489138 -0.0032502427 -0.01196308 -0.011745856 -0.014061691 0.01662929 -0.003186033 -0.0068941936 0.0027582636 -0.012441856 -0.016228274 0.005806953 0.0065735704 -0.0009111795 -0.014247968 -0.0010023592 0.0063718767 0.0059709833 0.0067163375 0.0029111558 0.010348561 0.0026440027 0.016579377 0.003451222 -0.00022843144 -0.0037107593 0.0006902548 0.000161694 -0.0010071261
混凝土靶板	0.010864893 0.0090628 -0.016315334 0.0076697306 0.011005338 -0.0019052952 -0.0028549887 -0.0048091146 0.020243825 0.010088638 -0.0029141384 -0.012385622 -0.0018772575 -0.0071747624 -0.00078877737 -0.0033401393 -0.006780303 -0.0095349755 0.008402169 0.008904969 0.012534164 -0.015147158 -0.012512266 -0.008922243 -0.0074244216 -0.014501697 0.0041009947 -0.0098099075 -0.0067343907 0.014002153 -0.0020741997 0.000425063 -0.003949588 0.007967091 -0.0164966 -0.007903145 0.00910227 -0.006705662 0.018719606 0.011988465 -0.0009002133 0.0044800327 0.0055506346 0.010756844 0.0072761336 0.0021140021 -0.005408534 0.012879459 0.001275724 0.0054588397
实验	0.0040050726 0.015196642 -0.0208326 0.013586994 0.009679784 0.0043085366 -0.0022844821 0.002929028 0.026817849 0.0069297347 -0.009686868 -0.014008173 -0.005530065 -0.022233604 -0.016747322 0.010324174 0.002515393 -0.00085703697 0.0018111018 0.0062509836 0.0051652165 -0.0046607824 -0.013698933 -0.009640548 -0.013127629 -0.022497332 0.0013881865 -0.010563032 -0.0026765128 0.009028762 -0.020373922 -0.0058197863 -0.006360919 -0.005357196 -0.019151935 -0.015183613 0.009208069 0.001016118 0.015923811 0.009379196 0.0022998594 -0.0018338879 -0.0147676915 0.0035771218 0.0022835424 -0.0013837238 -0.011067862 0.019386621 -0.0045794663 -0.004553413
．	0.012892551 0.018900571 -0.01509328 0.010649738 0.007753429 -0.004673754 -0.0074054613 -0.0055670715 0.013372481 0.005282748 -0.0065398603 -0.008874825 -0.0011599007 -0.003165126 -0.011931708 -0.006607604 -0.0075199893 0.0052051423 -0.0057354914 -0.004419291 0.008323077 -0.010657666 -0.011105238 -0.013615093 -4.223905e-05 -0.014395584 0.00809785 0.0068244897 -0.0037776025 -0.003341449 -0.0147823645 0.0026777203 0.0005432492 0.0023114944 -0.0024351636 -0.00196441 0.00731941 0.006551286 0.011808311 0.004223706 0.01298609 0.010001063 0.00072730175 0.00462137 0.0152827585 0.0043113255 0.0022496078 0.005252689 -0.0005175396 0.007958514
由于	0.0114973 0.007901173 -0.010825463 0.004975368 0.0026611919 0.00958425 -0.012156279 -0.015311942 0.02044551 -0.0028623191 -0.005212211 -0.018081838 0.0005210338 -0.016254537 -0.010033975 0.0064919223 -0.008825141 -0.006145407 0.0068599605 -0.005712798 0.017322607 -0.005078032 -0.009961398 -0.021215448 -0.008261858 -0.0016929384 0.018319642 0.007969219 -0.0048371432 0.0018985092 -0.0054019447 -0.0055995667 -0.008260628 -0.006192606 -0.008242443 -0.004196953 0.010402582 -0.0074064196 0.011790117 0.01125209 0.00812127 0.011611571 -0.005595113 0.0048933723 0.012965774 0.002025434 -0.009818851 0.012291166 -0.018488625 0.0018326318
只有	0.0020106642 0.014352748 -0.0072587878 0.00091530173 0.0053603738 -0.0071401065 -0.0053885574 0.0018415942 0.0053053536 -0.008451013 0.002172194 -0.0012391395 -0.003381782 -0.013745111 -0.0056233564 0.010123039 -0.0069174333 -0.009396922 0.009477465 0.001941497 0.013395005 -0.0062051555 0.002117603 -0.007298816 -0.004189313 -0.013718238 -0.0048852414 0.007509356 -0.009936945 0.012582877 -0.014400989 -0.011652259 -0.0048730522 0.0055512358 -0.010389476 -0.0065718815 -0.0061086235 0.0022244172 0.016011018 0.008174994 -0.0015009628 -0.0032994053 -0.012034145 0.00010134945 0.00047746475 0.00037151374 -0.0021034041 0.012419258 -0.00785135 0.002302187
一部分	0.014014 0.017374437 -0.012409318 -0.00047864424 0.0011262079 -0.0005686904 0.0001342194 0.00454516 0.0132933445 -0.0050808154 -0.008898741 -0.0017030672 -0.0081004985 -0.010954421 -0.008084886 0.007903801 0.004212869 -0.005083031 -0.0046179094 0.0011525071 -2.2854925e-05 -0.014217379 0.00075446675 -0.014002485 -0.0061852974 6.859225e-05 -0.0036947639 -0.0053903507 -0.012743324 -0.0036500117 -0.0015238804 -0.0074100727 -0.011879308 0.0051424303 -0.012170338 -0.00611449 0.0001916437 -0.0031289274 0.0021204546 2.4209974e-05 0.006825228 0.0035050553 -0.008048774 0.00040025273 -0.004401131 -0.004433739 0.0031784729 -0.0014162692 -0.011989012 0.005260592
靶板	-0.0045901253 0.004406902 -0.0042248573 -0.005081909 0.0006653742 0.0066892733 -0.01492462 0.004600954 0.0044602687 -0.005040881 0.005133323 -0.0043204245 0.0061228466 -0.0045531914 -0.0032749327 -0.0010292652 -0.0017008432 0.002438653 0.0039810156 -0.004598068 -0.003213463 -0.002696198 -0.011338753 -0.017238475 0.0005298094 -0.016590714 -0.0031093047 -0.008199157 -0.008819215 0.0029180888 -0.015521163 -0.0031173255 0.0054579256 0.00060522364 -0.016482564 0.0025176927 0.011165077 0.004966354 0.0030107277 -0.0052506835 0.009938646 -0.0025610698 -0.010891808 -0.0033600493 0.0084025245 -0.0005410615 0.0016160194 0.009969819 0.0016037438 0.007125797
被	0.009116915 0.0016279805 -0.008492472 -0.0014671788 0.0043403963 0.0016284576 -0.006514835 -0.0055911685 0.017444897 0.0068167015 0.0029875806 -0.0015137682 -0.0069695325 -0.01663831 0.0012610861 0.011487507 -0.013805009 0.005340355 -0.00048810252 -0.008716339 -0.002866935 -0.0033603671 0.00079210335 -0.005964507 -0.0053972374 -0.015896626 0.011721992 0.00051230425 -0.0057630576 0.0078848265 -0.00043991377 -0.0046820617 -0.01226114 -0.009843158 -0.003371557 -0.015594921 -0.0028609047 -0.008531924 0.014799308 0.00017523833 0.007520011 -0.00042415241 -0.0056654196 0.0074036703 0.010250803 -0.013379882 -0.009491862 0.0012984127 0.000615948 -0.0055960095
弹体	0.013555625 0.018676063 0.0004232442 -0.00026005955 -0.00048799376 0.0035577687 -0.010919725 -0.0069716843 0.021420525 -0.0002494224 0.0030483073 0.0013799132 -0.0010479362 -0.0060816933 -0.008511032 0.009127009 -0.0019605407 -0.002461281 -0.003607779 -0.0021134766 0.0027987785 -0.013538244 0.0019355266 -0.018366253 0.004801843 -0.0127182575 0.012642411 0.00343847 -0.0055336165 0.00089046767 -0.016554356 -0.018759921 0.0016847205 -0.010157286 -0.011294758 -0.009668799 -0.006777152 0.0022942577 0.0187696 0.0069563757 0.002862946 -0.0015329197 0.0034183834 0.0057190093 0.0065050903 -0.016094109 -0.014289135 0.01623648 0.00015910038 0.0011589753
贯穿	0.0011090288 0.012113012 -0.014402768 0.011536696 0.0076311836 -0.0043757404 -0.0011212624 -0.00022475235 0.022732588 0.0020597456 0.0046932492 -0.0074697747 0.0015336974 -0.014378158 -0.0049706604 0.0063831485 0.0045041037 -0.014447917 -0.0020422302 -0.0067722765 0.0057430835 -0.001458408 -0.013671725 -0.016738636 0.0043182215 -0.011362581 0.007968256 -0.0014838155 0.0026770378 0.00520377 -0.005089605 -0.009265221 -0.011162974 -0.009227586 -0.0016774576 -0.01269848 -0.00011191532 -0.008004242 0.019580442 0.0035388456 0.0119985575 -0.00030294844 0.0017010552 0.0129562905 0.015855601 -0.0017166898 -0.009134245 0.019028326 -0.010427723 -0.001864366
只	0.0037716115 0.008608089 0.0065344768 0.0025016807 -0.0088454215 -0.004158032 -0.0127213225 -0.01161645 0.014922093 -0.006464891 0.0013350599 0.00034269053 -0.0057400446 0.0051220474 -0.0053730546 -0.0021137465 -0.011732954 -0.0048968405 0.0056744916 0.0074645914 0.009741153 -0.004716922 0.0024603966 -0.013558808 0.0052764025 -0.013651301 0.007833421 0.006479776 0.005532026 0.0048171314 -0.0116111 -0.0051221247 -0.008310887 0.0027392097 -0.006916643 -0.0073973606 -0.0043444247 -0.0061145937 0.004055378 0.009517543 0.012421578 -0.0035317913 0.00024294117 0.0073696338 -0.0050736726 -0.012115484 0.0014213448 -0.0045565628 -0.010630941 -0.0005639966
研究	0.0021805088 0.017649032 -0.013843646 -0.0026550698 -0.0012924701 0.00283556 -0.0072918814 -0.00011378237 0.011661772 0.008209672 0.006934102 -0.011843573 0.007646529 -0.0071035745 -0.0006326085 -0.0021759637 -0.006134131 -0.01032588 -0.006762809 0.0022712986 -0.0012740477 -0.0067487354 -0.0066633867 -0.0005072222 -0.0086894035 -0.009162053 0.014100632 0.001064346 -0.00024548377 0.009566901 -0.015226685 0.0037401817 -0.006730776 0.005950131 -0.009566847 0.001004381 0.0042256257 -0.0057741823 0.009794379 -0.002978058 0.0057053757 0.01119648 -0.0075304015 -0.0032190103 0.01298165 0.0006866832 0.0038571863 -0.00067727343 0.0014270708 -0.008854037
完全	0.011280047 0.010225485 -0.0062216604 0.0017875121 0.008923453 0.0021769614 -0.004877509 -0.005724911 -0.004122221 -0.008093823 -0.006381193 -0.0020934658 -0.0072696554 -0.00900049 -0.004691351 -0.0048034512 -0.008904303 0.0077814977 -0.0018076979 -0.005933809 -0.003369996 0.0038050187 0.0033494015 -0.011950002 -0.0018070989 -0.008395162 -0.00048516676 -0.0036207242 -0.01079274 0.008258207 -0.010164055 -0.010997739 0.008962356 -0.010234177 -0.010116811 -0.009784061 -0.001307312 0.005690408 -0.005466527 0.006872672 0.00031169385 -0.004979761 -0.0083256345 0.0024937596 0.008079508 -0.0047033327 -0.0019891153 -0.0013173855 0.002129363 0.0037085635
５	-0.0043645697 -7.096217e-05 -0.005024527 0.0066961516 -0.004751108 -0.00076292345 -0.012527331 -0.011911226 0.017418137 -0.003930017 -1.8080176e-05 -0.0122517925 0.0015311235 -0.014673674 -0.012985794 -0.0071002687 -0.004581338 -0.0011373588 0.009217433 -0.0026695812 0.013359072 -0.011136642 -0.01115915 -0.006291338 -0.004433465 -0.0136765065 0.014391854 0.0069739567 -0.0005038282 0.0011479768 0.0028602914 -0.007258729 -0.008302441 -0.0029802672 -0.014061624 -0.007327442 0.0060114805 -0.00944935 0.00019879424 -0.004794383 0.0050742785 -0.0030606154 -0.011134495 0.010475304 0.0033033346 -0.010821628 -0.01166401 0.009954684 0.0044703917 0.0064371373
个	0.015005233 0.01515558 -0.01526334 0.009419896 -0.004616654 -0.00013933626 -0.0151495915 -0.012838164 0.019558264 0.010251272 0.004782055 -0.011960867 -0.0050221565 -0.004039707 -0.011756756 0.010880979 -0.006084844 0.003908419 -0.0028997427 -0.001947214 -0.0010190939 -0.0074449475 -0.011656628 -0.012288158 -0.0027697566 -0.004865044 0.014577656 -0.004097174 -0.012512575 0.0026904463 -0.005050122 -0.0013429659 0.0037926133 -0.0012397622 -0.011718113 0.0017727085 -0.0057106884 0.0055216006 -0.00048147232 0.0062359762 0.005059722 -0.0010969229 -0.004100625 0.0032308635 -0.0026417105 -0.000584934 -0.009887249 0.0023801788 -0.0033951143 0.0009505363
模型	0.014169985 0.009510846 -0.017299576 -0.0012469323 0.008348903 -0.007832755 -0.0048319185 -0.00977137 0.018599167 0.003981547 0.008223544 -0.006781737 -0.005189802 -0.009728378 -0.007911433 0.0037484814 -0.0064290925 -0.012363855 0.013048539 0.010090262 0.0050052055 -0.00025890657 -0.012109102 -0.0056161797 0.0009003053 -0.018141085 0.012343531 0.008161526 -0.00088943203 0.009630226 -0.01729508 -0.0008050161 -0.0051611597 -0.005242956 -0.015446498 0.0012577585 0.0099208895 0.0036524024 0.015352108 -0.0064863157 0.0011191946 0.010648387 0.00047028725 0.010759169 0.0110901315 -0.0020645834 -0.010737025 0.019010806 -0.0015140986 -0.010928902
其中	0.006773114 0.0076694977 -0.010050032 -0.0017173274 -0.0028486901 -0.0077606183 -0.0061403234 0.0065486617 0.014416487 0.010022281 -0.007780777 0.0012248949 -0.0041225925 0.0009845531 -0.0016288705 0.003584825 -0.011491043 -0.011210838 0.009713799 -0.0082456395 0.007355286 -0.01263993 -0.0009581884 -0.008311191 0.0002141784 -0.011387603 0.014512298 0.0047735036 -0.007848698 -0.0016396472 -0.0064389734 -0.00438318 0.0010119472 -0.0068326183 -0.00025774306 -0.013657318 0.008187638 0.0004222798 0.017612044 0.00025717344 -0.0011840495 0.0068072053 0.0045941803 0.013458602 0.00982154 0.002473221 -0.0022753724 0.0070795766 0.0031431133 -0.010016416
Ａ	0.0017845907 0.005402483 5.8875885e-05 0.011150221 -0.008560168 0.0075940625 0.0033316312 -0.012174754 0.013078339 0.0005808227 0.007353682 -0.0057709613 0.0016319389 -0.015554848 -0.014634207 -0.0075009195 -0.0056376606 -0.0076654404 0.0009954812 -0.0054314043 0.011402508 -0.0069633904 -0.005459406 -0.0041513387 -0.008226084 -0.014762591 -0.0042740176 0.009463901 -0.012598536 -0.0027939202 -0.0044833617 0.0033863664 -0.0034867076 0.0016228459 0.00037892957 -0.0004189413 0.008815292 -0.0042838766 0.017866714 0.006434515 0.009758355 -0.0017059642 -0.0007192544 0.014030901 0.009941808 -0.013135735 -0.0020081026 0.005265188 -0.00013402931 0.0022418152
组	-0.003715122 0.009650219 -0.0076419422 -0.0049100146 0.0070602098 0.008199152 -0.0016640766 0.0016957362 0.00493443 0.0003929201 -0.009575349 -0.009250001 0.00436613 -0.003291691 -0.0016880663 -0.0040577855 -0.012657077 -0.014172538 0.0054685487 0.009444949 0.011360845 -0.00200159 0.002702892 -0.003201778 -0.001875248 -0.005300216 5.2378447e-05 -0.0064464984 -0.00036146666 -0.0019851148 -0.01606786 -0.0058324942 -0.00269474 -0.00407683 -0.004608957 -0.006123916 -0.0045424346 0.009632696 0.009399541 0.0021834394 0.0063307155 0.0017308978 -0.012420945 0.015011467 0.009945308 0.0003518129 -0.0071658776 0.0027071107 -0.015225571 -0.0043190317
以	-0.0015838243 0.020889329 -0.009741512 0.011920638 0.0054285843 0.0023637894 -0.010438718 0.0058739684 0.007010396 0.009026293 -0.0030997216 -0.010072897 0.00502532 -0.0043186946 -0.002196381 0.009652151 -0.0022160236 0.0021687371 0.012384906 0.008041255 3.4120287e-05 -0.011746056 -0.008404259 0.0010247999 0.007023515 -0.011854118 0.008904386 0.0036907156 -0.009405615 0.0094223 -0.0034469047 0.0011755995 -0.0022362836 -0.0047197975 -0.007796635 -0.0021875552 -0.00397389 0.0025368242 0.00016302745 0.004513114 0.006289883 0.009319215 -0.008814245 0.0025684114 0.0057191 0.0043601324 -0.0053958297 0.008789216 -0.0021616777 -0.010482035
568.8	0.014407146 0.01480401 -0.008598527 0.010381476 0.0049346513 -0.0024436153 -0.0072616106 -0.0132492995 0.006910901 0.008612118 -0.0043082824 -0.013528794 -0.0045469482 -0.016595697 -0.009315691 -0.0047945264 -0.0016163993 -0.00812087 -0.0019570747 0.0043920935 0.01604891 -0.0007179349 -0.0070133866 -0.011134167 -0.010676615 -0.007612799 -0.0020432586 -0.009665319 -0.007164116 0.0023980988 -0.005209839 -0.015556475 -0.007525825 0.0055571077 -0.018825933 -0.009108734 0.006033315 -0.0016000362 0.020327117 0.007324713 0.01800031 0.0017083924 0.0010518332 0.01586483 0.009223588 -0.0041399263 -0.01377202 0.00078810664 -0.009797358 0.005108196
645.8	0.0097648 0.00017696974 -0.000244954 -0.0054989695 0.0038049028 0.003397955 -0.00043405726 -0.009170483 0.008686381 -0.006108476 -0.004750702 -0.0003055881 -0.0119040795 -0.0031920036 -0.0037295383 0.008617603 -0.0015728662 -0.009334546 0.008117862 0.0010312984 0.012066376 -0.0017767448 -0.011924473 -0.008216993 0.0057454477 -0.012642924 0.011500541 -0.0052752537 -0.013104205 0.010500994 -0.009010101 -0.0015314013 -0.0015459397 0.0070036906 -0.009249201 -0.006499177 -0.004604327 0.0056031696 0.003487006 -0.0034474344 0.01521495 -0.0024286057 -0.005184935 0.0077412436 0.005828637 -0.0010417523 0.0045938105 0.0070730047 -0.004668516 -0.007626267
.	0.008356702 0.014674389 0.0047280183 0.012504505 -0.0058948738 0.010006084 -0.012536653 -0.011692629 6.790018e-05 -0.0022411582 -0.008005874 0.0054985387 -0.0074008917 0.003370619 0.0046329247 0.0105641335 -0.00056713156 -0.0034920191 0.010071738 0.00068709214 0.008140531 -0.0018000152 -0.008001672 -0.012744998 -0.0023345673 -0.015119167 0.0024427145 -0.0056888075 -0.008671356 0.0035777094 -0.0100143645 -0.009762783 -0.00881565 -0.010555718 -0.0023177946 0.000661412 0.009623325 -0.009232905 0.015675932 -0.0009268933 0.013173165 0.00065175263 0.005678395 0.003923631 0.001051262 -0.010932174 0.0037833692 0.008527023 -0.012679649 -0.0016982803
806.7	0.0039371355 0.0069921063 -0.002436664 0.0076298816 -0.0045324266 0.009045273 -0.0121812485 -0.003619375 0.00898572 -0.002954061 -0.005350945 0.0033671234 -0.00055278535 -0.0070173843 -0.008913638 0.005461955 -0.006241485 -0.004308518 -0.0019083078 0.004793746 -0.0067249504 -0.009915351 -0.011871964 0.0037556312 0.0019653118 -0.009648613 0.011863612 -0.0016136864 0.0008364041 -0.0010139063 -0.009806856 0.004772422 -0.003717602 0.0015815881 -0.008686368 0.0018350176 0.0024598502 0.0076718335 0.012984962 0.0060646595 -0.00017941339 0.010377716 0.007262527 0.008163533 -0.0033846234 -0.00074371777 -0.0058761216 0.00030136484 0.002689408 0.0057561835
速度	0.014705627 0.018333167 -0.008914766 0.0024860024 -0.0045428555 0.0034997864 0.0008697912 -0.0013578202 0.01982188 -0.0008003862 -3.8125403e-05 -0.007617665 0.0018538971 -0.008546155 0.0012858249 0.0033781393 -0.001016475 -0.00070666714 0.0041850884 -0.0032307473 0.0158261 -0.0086050425 -0.008678597 -0.014305311 0.0040047136 -0.009096333 0.0051363753 0.0031511001 -0.0035466785 0.0075035216 -0.0037696913 -0.012193344 0.0018388166 -0.006554608 -0.020159112 -0.012230402 -0.0040884563 0.00043958623 0.0054884646 0.012167862 0.0010160994 0.0045136856 -0.0014590219 0.00762523 0.011061149 -0.0127771115 -0.007387022 0.010957687 -0.007987223 -0.009055631
侵彻素	0.002986134 0.01820988 -0.015537626 0.0076016407 0.011734124 0.0056972806 -0.00044175584 0.0040436266 0.025611902 0.011921197 0.0010632701 -0.016298693 0.005108261 -0.008853438 -0.01330667 0.0043788184 -0.00057715963 -0.005413547 -0.0016109351 -0.0069812657 0.011535006 0.000114992996 -0.008138417 -0.0071770437 -0.007676353 -0.004630052 -0.0012235836 -0.0015288799 -0.0069746627 0.0121052135 -0.0076051643 -0.013380685 0.0005465628 -0.0020400009 -0.012481935 -0.01743844 0.004341268 0.007250517 0.00881957 -0.005730091 0.0008966516 0.007401615 4.3539058e-05 0.017425211 0.009714244 -0.0086298 -0.0074796523 0.013307726 -0.009204372 -4.449761e-05
混凝土	0.0071930373 0.009350082 -0.009580274 0.009129986 -0.0062448094 -0.009051148 -0.014431361 -0.00025933984 0.0051805116 -0.0041063046 -0.0016659554 0.00096759404 -0.009573588 -0.0010133553 -0.00094043004 0.00951663 -0.006495995 0.0029635672 0.01191278 -1.7113243e-05 0.0063461917 0.0035807174 -0.011293756 -0.015220459 0.0044421004 -0.007254283 0.014658095 -0.008963206 -0.011154091 0.009640903 -0.0074440893 -0.013349721 -0.0036830923 -0.0027485543 -0.005999983 -0.014352356 0.006432261 -0.009619316 0.009616107 0.008710099 0.0062515927 -0.0018983543 -0.0063846307 0.0043680063 0.009338409 -0.00047360593 -0.011925959 0.009769652 0.0026184223 -0.009121118
；Ｂ	0.008575731 0.01881999 -0.014035909 0.0020975429 -0.0059786867 0.010179105 -0.00020049664 0.0043285415 0.021818794 0.0016370072 -0.0014605168 -0.006411967 -0.012462121 -0.0046581994 -0.0052015185 0.0026773594 -0.0076116445 -0.014669186 -0.0017553874 0.003581985 -0.00092101353 -0.01515435 -0.010269048 -0.020868925 0.006368214 -0.0004350519 0.010052256 0.008735337 -0.009228746 -0.0028332565 -0.017089361 -0.0020038302 0.0031827288 -0.010725347 -0.012454733 -0.0002518453 -0.005812822 0.005326724 0.018363008 0.0063666804 0.009808446 0.0045627607 -0.012201496 0.0144369295 0.017705034 -0.0022833445 -0.009392482 0.012158015 -0.014474991 -0.0024548166
586.7	0.013183497 0.014816014 0.00076372083 0.005493988 0.0011853538 0.010135814 -0.0013937955 -0.010811188 0.022963695 0.0005965863 -0.005414106 -0.015155339 0.0018623229 -0.00735506 -0.0052048326 0.0048964336 0.0041944315 -0.001863307 0.005105236 -0.0028623275 0.001566838 -0.015524186 -0.014091097 -0.002372948 -0.005561624 -0.012430572 0.00013764483 0.0034119298 -0.00065553456 0.0075365594 -0.003318804 -0.01497932 0.0058942 -0.0075653475 -0.013472131 -0.0006832289 -0.0022333374 -0.005476456 0.011533224 0.006870527 -0.0011833757 -0.0060333 -0.012173889 0.008796714 0.0029632598 -0.013748631 -0.014504926 0.0036968854 -0.016879499 0.008960998
929.9	0.017920082 0.023767393 -0.010906093 0.00067402574 0.009319 0.0063720024 -0.012974756 0.0013354134 0.022863947 0.009648791 -0.0024764386 -0.0005893664 -0.008756223 -0.017427584 -0.017660402 0.0059157726 -0.014569008 -0.013229111 0.008736923 0.009783381 0.00891132 -0.0067120446 -0.013232378 -0.004499877 -0.0060654604 -0.0049766772 0.015891166 -0.0026619476 -0.016664725 0.014741168 -0.012218336 -0.017501483 -0.0003090108 -0.004951919 -0.0124586895 -0.010179007 0.011179783 0.0003069593 0.010266301 0.0017166008 0.004146617 0.010907195 -0.016329437 0.012804684 0.011797311 -0.009975315 -0.015617871 0.006344269 -0.020302339 -0.010486371
３．０％	-0.0074322894 0.012158601 0.000990898 0.006114952 -0.0064668586 -0.006998256 -0.0015898037 -0.0025451016 0.008512681 -0.0050486 -0.008759504 -0.0011524401 0.0015120307 -0.00032667452 0.006448653 -0.007915787 0.005476064 -0.0068033566 0.0033566563 0.0032043536 0.006872955 0.0044320454 -0.0071480223 -0.013484538 -0.010207102 0.00617727 0.0031439846 0.00712353 0.0006397506 0.0011223871 -0.011334963 0.0064481194 0.007749236 0.005033363 0.0051027182 -0.0058665327 0.0020637587 -0.0023869125 0.0043216194 0.0034404784 -0.0024475118 0.0016600289 -0.0059899455 -0.0045028655 0.0041523543 0.0060703848 -0.0025602637 0.0030491198 -0.011558622 0.0019207923
钢纤维混凝土	0.006653389 0.010106222 0.0054447763 0.006572568 0.008078407 0.0046267454 -0.013571731 -0.0092756655 -0.0007340634 -0.00094923266 0.0066341343 -0.0051477565 -0.010826923 -0.00072246284 0.0034087016 0.0045387684 -0.00086334586 -0.0053164745 0.007590221 0.00087697664 -0.0028272017 -0.0048349346 -0.010088849 -0.009338142 0.00292169 -0.010452575 0.005268865 0.0008671627 -0.007771564 0.0052820854 -0.007430841 -0.0057067573 -0.006089492 -0.0013139476 -0.0024664905 1.1011235e-05 -0.0025404203 -0.0022962391 0.0058767577 0.010177767 0.013422311 -0.0062726256 0.0003454567 0.0013834798 -0.0057952204 -0.008693039 0.001390906 0.012285118 -0.010926974 -0.010041363
所有	-0.0040946994 0.0073983553 -0.010291805 0.010605499 0.00800137 -0.004479356 -0.0069599506 -0.0073185447 0.010907551 0.00862376 -0.0025094457 -0.012676988 0.00015598802 -0.014154774 -0.00858128 0.006935387 -0.008659665 0.001726535 0.0058109104 -0.008353014 0.0066694985 -0.0009540495 0.0011152813 -0.017842535 0.007222258 0.0011132859 0.013721024 0.0062873047 -0.0123663405 0.007970464 -0.005623688 -0.001101527 -0.004627291 0.0005601689 -0.015244475 -0.004227701 0.0064897006 0.002846495 0.0087001035 -0.002016144 0.0026740485 -0.004384241 -0.0071774074 0.0036925946 -0.0010900642 0.0027334332 -0.01141341 0.0012407473 -0.007059423 0.00606345
均	0.0068256194 0.010740571 -0.011808103 -0.002750709 0.008317548 -0.0063724387 0.0021943143 -0.01244451 0.006116708 -3.673582e-05 0.008218806 -0.014405462 -0.0011567002 -0.0059322757 -0.00023875467 0.011733768 -0.005314949 -0.0049623237 -0.0039401012 0.0073933913 0.0017615253 -0.01314698 -0.0036297392 -0.0077602817 -0.0015973996 -0.0022371104 0.0025068019 -0.0108311735 -0.013324623 0.004058757 -0.00658871 -0.007980363 0.007914066 -0.009948544 -0.008594425 -0.007253745 -0.0055624335 -0.0019394661 0.017174857 0.012642215 -0.0008417965 0.0021702792 0.0009493322 0.0021978857 0.012295814 -0.0049975384 -0.012664085 0.007944367 -0.0061335023 0.007549933
500	0.0044865245 -0.0013251766 -0.013243243 -0.0007083609 0.0052037793 -0.008214169 -0.012007044 0.0020123369 0.008751334 -0.004383615 -0.00194134 -0.004135707 0.0048285564 -0.010148141 -0.0012452704 -0.0030902612 -0.0073969797 0.0012628319 0.0043916423 -0.0011673943 -0.0015437028 -0.0059933728 -0.008387592 -0.01021723 -0.011571619 0.003249785 0.008536247 -0.00181036 -0.0029287434 0.012830929 -0.0067617297 -0.0076874034 -0.0059243836 0.0048674783 -0.014539427 0.0023280587 0.010675244 0.0062710242 0.0070617264 0.0042056926 0.012009198 -0.0065438515 -0.0046258722 -0.006137173 0.008564885 -0.011553607 0.004548502 0.011028337 -0.0026191117 -0.0019363844
高	-0.0034890324 0.016386516 -0.0047307108 0.0039924746 -0.004681017 -0.0036655366 -0.0057065245 0.004930942 0.014459549 -0.006733874 0.008661116 -0.008935518 0.00696575 0.0029817922 0.004471298 -0.00022432019 0.0063668108 -0.010597439 -0.0031655892 -0.004792045 0.0071669496 0.0018891704 -0.01144728 -0.014696992 -0.005259909 -0.0009064607 0.0058470843 -0.0023271602 -0.012179146 0.01152589 -0.0063705808 -0.008965852 -0.004324682 0.0024993152 -0.014786924 -0.005107907 -0.0010349832 -0.007721665 0.0032610497 0.0007236172 0.005392161 0.008692253 -0.012416882 -0.003861498 0.005524696 0.00033832146 -0.006844406 0.005231456 -0.0051016146 -0.010239665
250	-0.0051634135 -0.0015786682 -0.009976465 0.006507763 0.01038183 0.00015389909 -0.0070780553 -0.0042843544 0.011462827 -0.008800815 -0.0015425304 -0.0065532094 -0.0041092057 -0.007621891 0.0024285326 0.0013042483 -0.010624587 0.0015979917 0.0056807366 -0.0050271684 0.0057559204 0.0007490591 -0.008407348 -0.0050507686 -0.010472449 -0.008022349 0.008781856 0.00042378102 -0.0061296406 -0.0015729074 -0.010244851 -0.010857975 0.0040548323 0.0068590227 -0.013221029 -0.0059556365 0.001434576 -0.0020395522 -0.0030416911 -0.00643564 0.0013734592 0.0032831025 0.00066923007 0.011940859 -0.006548973 -0.008715567 -0.012934082 0.005330676 -0.0059456243 -0.0025332854
圆柱体	0.00074520445 0.0067712627 -0.01582852 0.0064891935 0.008234284 0.00898606 -0.0038865225 0.0025248246 0.020069651 0.00042472684 0.007679307 -0.010166458 -0.0025051695 -0.00520963 -0.012321228 -0.00053742016 -0.0018488491 -0.010474606 0.008850977 -0.008195676 0.0072350306 -0.011250858 -0.013024973 -0.012773417 0.0029772674 -0.0055488683 0.009196686 0.006804834 -0.005841174 0.012704505 -0.011627237 -0.010125949 -0.003909477 0.005483593 -0.009079509 -0.0101196645 -0.005361171 -0.0019282443 0.021466492 0.013421243 0.015194265 0.0031383627 -0.0035313468 -0.0015734029 0.008989889 -0.0016393899 0.0016265931 0.014412161 -0.01493591 0.0022972657
外	0.0013045708 0.0076479246 0.002000423 -0.0021426575 -0.004041902 0.0022878093 0.004964569 -0.010636038 0.004691757 0.0060278545 -0.0056976182 -0.005957141 -0.004748527 0.0047507207 -0.011643579 0.0021053809 0.0043836893 -0.0008865691 0.0023203446 0.0070007797 0.0074108597 -0.010577109 0.0071607865 0.0020195174 -0.009332745 -0.010357845 0.009168003 0.0089429775 -0.004139242 0.0013777585 -0.0040535885 -0.007327989 -0.0025342146 -0.0018363468 0.004102671 -0.011274173 0.006146195 -0.008746625 -0.0012669988 -0.006687903 0.00026173008 -0.0023389556 0.0023689165 -0.001592788 0.0100128725 -0.0047336095 0.002564609 0.013832198 -0.00517568 0.002655762
边界	0.0020560266 0.013663573 0.00015224327 0.005754192 -0.006768527 -0.0031098963 -0.009929141 0.001905704 0.010485342 0.0027020164 -0.008094533 -0.010014079 0.005692883 -0.0116356425 0.002042998 0.011381777 -0.0069609284 -0.012674792 0.0017108257 -0.0012302985 0.006746482 0.0058887135 0.0012982165 -0.007882376 0.006477389 -0.009990991 0.0033243268 -0.00533843 -0.003694636 -0.0024890706 -0.01322484 0.0017198182 -0.0024004222 -0.009421649 -0.009798732 -0.006455834 -0.004207341 -0.0034601726 0.0004967592 -0.00047581526 0.009701357 -0.00467547 -0.0016396513 0.009367038 -0.00074515224 -0.009497863 0.0018353243 0.0059018023 -0.005278671 0.0054324586
用	0.0021154624 0.004081717 0.0021001769 0.009494884 0.0074578007 0.0004595272 -0.0050159534 -0.011365987 -0.0007945583 -0.007952556 0.0020854343 0.003843264 0.0072008604 -0.0102634495 -0.0025040794 -0.002838103 0.007740248 0.006390991 0.008711394 0.005889816 0.0039711706 -0.0088456925 -0.0015461637 -0.011379448 -0.003132306 -0.0046589775 0.0075380453 -0.010272262 -0.010564444 0.009169482 -0.0058003925 -0.012183395 -0.0071018334 -0.0059242537 -0.0114171095 -0.007827428 -0.005915746 -0.002510525 0.0135822715 0.0088882055 -0.00017961256 -0.006592758 0.001941588 0.0027212047 0.0017846517 -0.0022355414 0.0005092347 0.014432467 -0.00483087 0.008944807
钢板	0.0041504074 0.00760458 0.0034027772 -7.957211e-05 -0.003891876 0.008866428 0.0025819975 0.0066989786 0.0036394529 -0.00028292835 -0.003722063 0.004475453 0.004340456 0.0026369304 -0.0046366346 0.010556525 -0.0068469797 0.0057773856 -0.0054375906 0.00808893 -0.0027382385 -0.006929907 0.0005408925 -0.012385775 -0.0017112086 -0.006873733 -0.0019480393 -0.008306688 -0.0057025347 0.008212601 -0.00942024 -0.011429305 0.007182599 -0.00329074 -0.016715081 -0.013829833 0.0035986004 0.0012896474 0.010222155 -0.0005730384 -0.0031046148 0.008898177 -0.010411689 0.004388512 0.013595221 -0.012022028 0.0013166406 0.014433334 -0.009526911 -0.0012952123
固结	0.0043650847 0.012245796 -0.0075725843 0.012198094 -0.003613041 0.0061970693 -0.009762835 0.0035952532 0.016342798 0.008940982 0.0063003823 -0.0056211087 -0.0056588626 -0.012111406 -0.013152582 0.008196325 0.0065912833 -0.0039804657 0.0041963183 -0.0032258758 0.00021101035 0.0020102623 -0.010792381 0.00070403004 -0.008861814 -0.0049979086 0.007871821 -0.002404419 0.0054440293 -0.0031114675 -0.008303113 0.004560939 0.0028468852 -0.0073443227 -0.008819636 -0.013456329 0.009977271 -0.006297028 -0.0013987585 0.009964071 0.0025722121 -0.0017179096 -0.0022287858 0.004760575 0.014200054 0.00395719 -0.012254028 -0.00048634683 -0.014755228 -0.0027058995
采用	-0.0030500058 0.021005549 -0.0038222782 0.008720572 0.0046014097 -0.0049309577 -0.01758502 -0.013122464 0.011886824 -0.003927828 0.007568086 -0.011854564 -0.009383774 -0.008715149 -0.0023145224 0.011256664 0.0055148224 -0.008771474 -0.000789121 0.008429173 0.01376646 -0.016046047 0.001731602 -0.018307276 -0.0076507125 -0.0037909907 -0.001848579 0.0003479105 0.0007185377 0.0066814823 -0.0073875044 -0.014318317 -0.01068099 -0.0017194332 -0.016065923 -0.0051835943 0.008109961 0.0055210013 0.015461766 0.013025829 0.011303088 0.0071424926 0.0001878392 0.004310373 -0.0028377194 -0.01058389 -0.017396588 0.0030943013 -0.0011184926 0.0028714915
半球头脱壳尾翼稳定穿甲弹	0.013859188 0.018549386 -0.00051723083 0.0081061525 0.00037343457 0.009539121 -0.015653716 -0.003796689 0.006827061 -0.00720454 0.0016896774 -0.01382987 0.007449579 -0.016009923 -0.0024158843 0.0071413023 0.0023561204 -0.013098895 0.002516752 -0.008360535 0.0094156 -0.015663657 -0.0050302185 -0.013298648 -0.0075050313 -0.0060574366 0.005316959 -0.005703784 -0.008759493 0.013965273 0.0015553545 -0.004278209 0.00011429474 -0.0017050331 -0.0036659166 0.0026887562 -0.0061091115 0.0060718744 0.008839701 0.0041245525 -0.0025167123 -0.0058166184 -0.010209988 -4.068431e-05 0.0021439488 -0.0098223705 -0.013816441 0.0017765234 -0.0070903045 -0.00472895
113	0.010377535 0.008299294 -0.012918367 0.012788393 0.002405199 0.0083968835 -0.013823153 -0.0069659385 0.010948801 -0.008245211 0.007789532 -0.0114643695 0.00530621 -0.005320557 -0.0010485153 -0.00042296728 -0.006614233 0.0017545554 0.0039828005 -0.008688754 0.014099562 0.0043306043 -0.013082537 -0.008904207 -0.0091084195 0.0017375821 -0.004845906 -2.0377169e-05 -0.009202936 0.009854639 -0.016379038 -0.0015746352 -0.008982005 0.007176202 0.00063901744 -0.007892005 -0.00787862 -0.0073402515 0.0127099585 -0.0024815055 0.011356451 0.007957334 -0.00095828297 -0.0013499749 0.0031551148 -0.010364913 0.0017507065 0.008746662 0.0008246177 0.0029436424
14.55	0.008681039 0.019401897 -0.009396715 0.01142982 -0.0026066615 -0.0051751807 0.0028110337 0.0047481027 0.0023123978 0.0033914363 -0.008958678 -0.011267155 -0.0072474633 -0.014760121 -0.010730462 -0.000312397 0.002470531 -0.012171659 -0.0049362844 -0.003139282 0.00051746285 -0.012887437 -0.0014516414 -0.009910087 0.0052797426 -0.0048332806 0.0042360355 0.0013813225 -0.008732437 0.010814145 -0.011223941 -0.0012587858 0.0062723733 -0.008155792 -0.0015472539 -0.011338683 0.0088207815 -0.007140198 0.01622668 0.010165249 0.013202058 0.0055567655 0.0003368462 0.0029641078 0.0030680655 0.0020677857 -0.012694069 0.0064955424 -0.010061964 -0.00064218935
垂直	0.0004325646 0.009451718 0.0013506411 0.009046685 0.0021660228 0.009238477 -0.0010031112 -0.0106134955 0.010461261 0.0018475765 -0.0054984675 -0.0039252862 0.0063324985 -0.014789301 -0.0135916155 -0.003894649 -0.010617587 0.0009118219 0.0016515835 -0.0023378949 0.01418941 -0.010987688 0.0033673807 -0.012749214 0.00033524152 -0.011220655 -0.002752339 0.0037707319 -0.01214099 0.00718226 -0.005013017 -0.014415651 -0.010187722 -0.004169569 -0.008061425 -0.011419796 -0.0055484856 0.0057670134 0.0070493394 0.00469104 0.009029246 -0.000986922 -0.0016218944 0.008507174 0.015732817 -0.010432405 -0.01609254 0.016062584 -0.0049038157 -0.0025242276
入	0.006509251 0.0017727179 0.0029603187 -0.00060136843 0.003172841 0.0056857415 -0.013671026 -0.004988673 0.011846253 -0.008145915 0.0021862541 -0.0017019642 0.0076826643 -0.0047716945 -0.0077443905 0.007856676 -0.010227576 0.0028478713 0.00867643 -0.0013142957 0.013908561 -0.012472625 0.0054580476 -0.009743737 -0.0103872195 -0.012953698 0.005618532 -0.0035443483 -0.0060305838 0.00062182563 -0.014456645 -0.009143931 -0.006638037 -0.0049644043 -0.015353775 -0.0024177218 -0.0024982952 0.004646228 0.014279276 0.0066111786 6.576151e-05 0.000508264 -0.0011005021 0.006764103 0.00036223794 -0.011810851 -0.010203945 -0.004618418 0.0046019945 -0.003593671
射靶	0.0069556087 0.010282008 -0.010768475 0.007228103 0.0046705026 0.010413275 0.00044251353 -0.00094195537 0.014818932 0.0006715062 0.0017811583 -0.009094472 -0.005208776 -0.0023922606 -0.013756197 -0.002943223 -0.009709039 0.00031120292 0.010015537 -0.0035943855 0.00039676408 -0.0056084753 -0.0075319377 -0.0066465684 -0.010502692 -0.010597817 0.01746949 -0.000919419 -0.012357119 -0.0032728733 -0.0020314388 -0.0012961867 -0.0089256875 0.0028262103 -0.010423119 -0.011696109 -0.0078016426 -0.0014807851 0.002739756 -0.006067797 -0.0013337531 0.009794381 -0.0073648756 -0.002749833 -0.00067418424 0.0029036696 -0.014183413 0.016539346 0.0016309244 -0.0017421183
板	0.005093649 0.0015155197 0.0060693366 -0.005323131 0.002455167 0.0031997259 0.0036527973 0.0075129047 0.009268725 -0.005063245 -0.005800971 -0.0039616544 0.0035725092 -0.009897457 -0.007797518 0.0066358466 0.0027254599 -0.011561836 8.067264e-05 -9.212968e-05 0.0066526593 0.005175152 0.0015860958 0.0035212575 -0.00443391 -0.011875069 0.0071724486 0.007834328 0.0037771636 0.013317108 -0.012805066 -0.0101010045 0.0023767748 -3.574805e-05 -0.010297112 -0.010895041 0.0033276735 0.0095913205 0.014948861 0.01027563 -0.0058905026 0.0041104727 -0.011549476 -0.0013365758 0.00013190559 0.00061016023 -0.0011726604 -0.0019825273 0.0024050747 0.0046960255
环境参数	-0.0047373646 0.011274887 -0.00421188 -0.00036491288 0.0074969316 0.009844144 0.002855471 -0.008495266 0.013529603 -0.006813075 -0.0073641483 -0.004848748 0.0037568787 -0.005934877 -0.0036903732 -8.069143e-05 -0.0048361905 0.0027182654 -0.0061662626 0.001800595 0.0026937984 -0.012745228 0.0050021294 -0.013282001 0.0011605446 0.00241858 0.008570946 0.007955407 -0.0057678353 8.506292e-05 -1.7390406e-05 -0.0013702344 0.007884618 0.007491128 -0.014039436 0.0010181895 0.006538144 0.0017668501 0.0030453226 -0.0046757315 0.012776913 0.010805243 0.0022257655 -0.001126107 -0.0017172745 -0.011862659 -0.0043700766 0.008653585 -0.010313984 0.007659844
:	-0.0031871165 0.0029533661 -0.00628501 0.0011722379 -0.00295087 -0.0036216967 0.0019438223 -0.007437131 0.00024283613 -0.0037750853 -0.010294538 0.002112296 -0.00659537 -0.008099897 -0.012713934 0.0072513125 0.002818831 0.0072315866 0.00992617 0.0025288784 0.0124521805 -0.01274093 0.0005014728 -0.0010037038 -0.009385711 -0.007965425 -0.0046751536 -0.00857551 0.006840841 0.00027811667 -0.0017370626 -0.012638545 -0.005084249 -0.008019943 0.0021070356 -0.004431763 -0.009578653 0.0016492221 0.0024869917 0.010948506 0.0035350893 0.007109226 -0.008116741 0.004233523 -0.0010363347 -0.0013070093 -0.0054922393 0.010778839 -0.010376833 0.0019572515
某一发弹	0.00432354 -0.00031909512 0.0027926587 0.012007455 -0.006070983 0.0086478265 -0.009058147 0.0030094117 0.009628261 -0.0017964429 0.008871396 -0.0018708496 0.0014095162 -0.007425843 -0.0112909665 0.0012380589 -0.0026782828 -0.0062063504 0.011599287 0.0062624062 0.011292262 -0.010890803 -0.007768435 -0.0051314523 -0.010931587 -0.008079187 0.0020702016 0.0017124527 -0.0069892816 0.003121455 0.0036034302 -0.005794331 -0.008128527 -0.0015271717 0.0034642008 0.0017094034 -0.0072071906 0.008743765 0.00093370414 0.0030626135 -0.00076722854 -0.005176149 -0.004983759 0.010641402 -0.0034140109 -0.011425979 -0.0068422966 0.011592749 -0.0007587103 0.006853232
重为	0.008668655 0.009915125 -0.012202343 -0.00622905 0.0012225424 0.0022555757 -0.0022370059 -0.0020084227 0.019108227 -0.004975429 0.000505516 0.0033662126 0.0048366734 9.483235e-05 -0.010215561 -0.0023608713 -0.0071409275 -0.010911668 0.002908282 -0.0052121794 0.003474114 -0.0031326297 -0.0035997126 -0.0054310565 -0.0063820486 -0.0064112553 0.0016568534 0.00887572 -0.007944126 0.0012215762 0.0012114915 -0.013941252 0.006499834 -0.0019884878 -0.002315529 0.00029920434 -0.005009085 0.008449351 0.007922098 -0.0037456665 -0.0012046249 -0.004049384 -0.007128949 0.011537243 -0.0015432813 -0.0026483752 0.0012669674 0.012906971 -0.0037069516 0.008689471
、	-0.0056000217 0.0140937595 -0.00710802 -0.0052813776 -0.0059035276 0.002755827 -0.011735204 0.0034357978 0.0038144337 -0.0042326464 -0.0073567377 0.0059226314 -0.010068668 -0.00086588855 0.0016900118 0.0060963957 0.000497569 0.006875246 -0.0043602777 0.0015030984 -0.005884389 -0.011486287 -0.011834611 -0.008242805 0.003285024 -0.011597125 0.007044123 0.0012644604 0.0048131566 0.006439018 -0.0003809918 -0.0051627117 -0.008301727 0.0034994294 -0.009031507 0.006391051 0.008053932 0.006060168 -0.0038489948 0.0044358782 0.0084922025 -0.0016047785 0.0046198675 0.00019005215 -0.0011424209 0.0016078402 -0.0067569674 -0.0028968581 -0.0063602724 0.004999587
弹长	-0.004694146 0.0036766808 -0.013124303 0.004554359 -0.0037091451 -0.0020583554 0.0045526247 -0.0077064564 0.0173782 0.009545138 0.0050841616 -0.001478674 0.00756984 0.0028532115 -0.008518388 0.01100775 -0.0019296719 0.0022071614 0.0114473915 0.008441489 -0.0046162363 -0.0037621225 0.00647006 -2.5839452e-06 0.00245799 0.0005347703 0.006609956 -0.002727723 0.005937234 -0.0010590567 -0.0032087904 -0.0008038071 0.0048731114 -0.0080766445 -0.009623939 -0.013827164 0.007938184 2.8865485e-05 0.0021334214 0.0066407947 0.007936364 0.009832655 -0.0075568063 0.0090527935 0.004857437 0.005159019 -0.008469285 0.0049005244 -0.0049527036 0.003098106
320	0.00028602322 -0.00042812852 0.0043217647 -0.0011962436 -0.004572826 -0.003088805 -0.0002811778 0.002328215 0.0046320837 0.0019258276 -0.007429131 -0.005135805 0.0031231712 0.005724226 -0.008826006 -0.0014023412 0.008603872 -0.0031131885 -0.004099953 -0.0041194404 -0.0040177433 -0.0023855518 0.00427059 -0.0130349435 0.0078885425 -0.008089772 -0.006533227 -0.0079796845 0.0056796023 -0.005667639 -0.003369418 -7.668487e-05 0.0043080808 -0.00076745934 -0.009801246 -0.0015062053 0.007843657 -0.004173816 0.0034180058 0.006500252 -0.0015435584 0.0095630605 -0.008348998 -0.0016345426 0.002002023 0.0074850777 0.0023222615 0.0013222741 0.0018757592 -0.0045081447
混凝土板靶	-0.004195044 -0.0027026339 -0.0070756045 0.009862016 0.0023749715 0.00125478 0.007934141 -0.009517254 -0.0056505827 0.00019090448 0.0032171893 0.0004055882 -0.0027457217 0.0062525417 -0.0047756 -0.004740721 -0.008452673 0.005313394 -0.002352183 0.0030472844 -0.0052966205 0.0039933855 -0.006688593 -0.0041714986 -0.008422175 0.005555129 -0.006405611 -0.0031180826 -0.0049209124 0.004803618 0.00048386893 0.002038724 -0.007247511 -0.0015948925 -0.003489387 -0.0067166076 0.0024071413 0.007992251 0.0042496254 0.0011993264 -0.0036357255 -0.003815237 -0.00046272774 0.011287768 -0.0022821762 0.0065414603 -0.0064066206 0.0077558747 0.0048209005 0.0030932848
D	0.012423186 0.019653713 -0.0009755318 -0.00013698898 -0.00093136594 0.005725133 -0.009203579 -0.011444612 0.020954734 -0.004856067 -0.009516421 -0.008271506 -0.0054440703 -0.009939149 0.00063552335 0.0002451378 -0.0010553295 -0.015376953 -0.00015672094 -0.0052226856 0.007380329 -0.012779226 -0.0036454783 -0.009232994 0.0026831622 -0.0075879437 0.0051307515 0.0049836966 -0.004785934 -0.002643736 -0.0168899 -0.016534368 -0.0072627226 -0.006396302 -0.012449267 -0.0017482608 -0.0067025637 0.00840564 0.002797439 0.002488842 0.0023998152 -0.0033228646 0.0012928048 0.0026612128 0.014378224 -0.014533712 -0.0027323533 0.0018433131 -0.0024966297 -0.0016851623
/	0.005787166 0.015645284 -0.008149791 -0.006810733 0.0036806122 -0.008339504 -0.006001161 -0.0038842561 0.0032994929 0.0021202066 0.0016553905 0.0064573744 0.00840849 0.0011899876 -0.009114562 -0.0034309456 0.0061590592 -0.008309985 0.0029026067 0.00569594 -0.0008998242 0.005237734 -0.00835632 -0.005876936 0.0010981605 0.005493501 -0.00041838991 -0.0040190755 -0.004699284 0.007846195 -0.012572756 -0.003853562 -0.005321376 -0.00583551 0.004510108 -0.0065569635 0.0048103463 0.0054453393 0.005669367 0.009710051 0.0011442557 0.0095978 0.007335815 -0.0014564883 0.0020492694 0.0045562917 -0.013110233 0.0027134265 0.004730933 0.008898323
d	-0.002051878 0.0051503186 -0.006344841 0.0062966994 0.008796659 0.009473531 -0.0076327617 0.0038103655 0.007242175 -0.008352176 0.0088922195 0.001083092 -0.011140534 -0.00663479 -0.011921237 0.0057125106 -0.009825263 -2.2722894e-05 -0.002336367 -0.0081445165 -0.004005646 -0.009901441 -0.0016752079 0.0020923328 -0.0025437134 0.0020718556 0.0031169788 0.004517763 -0.005870666 0.0034985538 0.00016349026 0.0027590494 0.0020846846 0.0054422305 -1.725813e-05 -0.0030092066 -0.0054750144 -0.004493918 0.01084986 -0.0022441165 0.0011777133 0.0013355092 0.0034677647 0.006380049 -0.0045145606 -0.009111371 -0.012529237 0.006689427 -0.010703066 -0.0061303624
=	0.0036716333 0.015075884 0.0016479545 0.006509876 -0.00036695832 0.00040970132 -0.011512491 0.00045566334 -0.00070236874 0.0095595755 -0.0022944235 -0.0010057297 0.0055355015 0.0025279936 0.000570807 0.0043521044 0.0046073245 -0.009101127 0.004638359 0.004909139 0.010292635 -0.010025911 -0.0008028388 -0.0033279338 0.0059075006 -0.01073284 -0.00085895526 0.0038343677 -0.001858764 0.0026359344 0.00074502704 -0.006003091 0.006983108 -0.005096705 0.00110227 -0.004415697 0.008152954 -0.010033319 -0.004164406 -0.003952722 0.011665601 -0.006492086 -0.011809955 0.00022444318 0.0060976087 -0.0014168704 -0.004290067 0.0052740187 0.002731146 0.0045756316
1.2	0.00052542967 0.010689447 0.0045530233 -0.0057113566 0.005285912 0.0004348153 -0.014035928 0.0010089104 0.010510547 -0.00017206297 -0.003259546 -0.008218005 0.0066894474 -0.010724744 0.0028145984 -0.0052276473 0.0011389118 -0.007870669 0.006926871 -0.0064862357 0.013278036 0.005640873 0.0009927005 -0.008248633 -0.00429304 -0.0045368015 -0.0058383867 -0.0032434717 0.0035133082 0.0055737123 -0.012908507 0.004217027 -0.0005362576 0.008092781 -0.0034193166 0.0019833562 0.006539688 0.0012989703 0.0046641263 0.011502945 0.005371705 0.0055979867 0.0010410509 -0.00427511 0.0040339204 0.005639624 -0.0040085185 0.011791987 -0.006675048 0.00041693627
（	0.0061282367 0.012801544 -0.0031829185 0.012356483 -0.0015400246 -0.008042015 0.0018223434 -0.009233114 0.018756948 -0.0059665176 -0.0060112015 0.0002952397 -0.0027074015 0.003122956 0.0014957382 -0.0009994884 0.0015550174 -0.0031481362 0.0053892205 -0.0028605917 0.015004906 -0.012296536 -0.0044796346 0.0015688301 0.0015462979 -0.014187699 -0.0032463972 0.0020353915 0.004450907 0.0032519721 -0.007325517 -0.010037885 0.004394181 0.005607027 -0.007339634 -0.012615666 0.008360008 -0.0047021275 0.013612255 -0.007211534 0.0045155883 0.003953729 -0.010661867 -0.005013488 -0.0010669235 -0.0026069935 -0.0072503374 0.008021989 -0.0076086856 -0.006661939
板靶	0.010159707 0.02081657 -0.01390076 -0.00064587494 0.002098189 0.009660993 -0.0046150247 -0.010885014 0.008944764 -0.0028076305 -0.0036656817 0.0036218583 -0.0063663204 -0.004169012 0.0003658538 0.01022917 -0.0053748777 -0.010907176 0.0073976438 -0.004414065 0.014540979 0.00046994578 -0.0005014829 -0.014724209 -0.0013303544 -0.011521972 -4.550598e-05 0.0070395116 -0.0006388737 0.012438122 0.0007953312 -0.0031203812 -0.006596692 0.004862872 -0.008307718 -0.009022362 -0.005965389 -0.0032754082 0.011226642 0.006855429 0.0026107572 -0.0062097423 -0.0115122255 0.0017046337 0.0005445404 1.9292074e-05 -0.014066329 0.005163492 -0.013220924 -0.0048909844
厚度	0.004279716 0.017589157 -0.014116471 -1.9993351e-05 0.0022820106 -0.0074451934 -0.003967487 -0.0052649495 0.016641444 0.0034946594 0.006814235 -0.0066196197 -0.006893361 -0.006248203 -0.008068343 -0.0021804022 0.0069358377 -0.0019383515 0.0038102383 -0.002169701 0.008584027 -0.00809839 -0.0021763346 -0.0048869457 0.0034571919 -0.012468123 0.00096319144 0.0074383547 -0.005073687 0.007019236 0.00038176042 -0.009172896 0.0026446457 0.0016531682 -0.0077712713 -0.014603735 0.009611424 -0.00092015293 0.0084942635 -0.00096211134 -0.004815651 -0.002230861 -0.012692778 0.012217516 -0.004341587 -0.01242053 0.002083377 0.014270329 0.00450014 -0.0062022284
）	0.0023155943 0.002086328 -0.0072385957 0.0012835301 0.0044328864 -0.008261663 0.003626283 0.005632719 0.005280881 -0.008037143 0.004035314 -0.0070030475 -0.010635976 -0.012382485 -0.004545575 0.010213034 0.003847813 -0.0014954939 0.009306213 0.0009836127 0.008409427 -0.010816605 3.2386426e-05 -0.009911641 -0.007161689 8.786747e-05 0.009883781 -0.010277579 0.0035938676 0.009124729 6.945302e-06 -0.0034671323 0.0057816096 0.002796754 -0.01696043 -0.0037965076 -0.005638148 -0.0066789854 0.0059105624 0.0027034245 -0.0032993695 0.006003244 -0.004444839 0.0053668367 -0.0013973241 0.005229449 -0.012132744 0.0008113571 -0.0069983415 0.0026191934
一周	0.0125351995 0.0049726954 -0.016578142 0.0029198602 -0.0015508572 -0.001426562 -0.015803661 -0.013718269 0.017253397 0.009335065 -0.00041473153 0.0016375318 0.0052844924 -0.0010013495 -0.006021236 0.011574866 0.004199514 0.0035401958 0.0063831415 -0.003893203 0.0021043932 -0.009691614 -0.015646575 -0.008124357 -0.0112021305 -0.0040606624 0.0028021554 -0.009732245 -0.0032876858 -0.0006333035 -0.0108116595 -0.012916307 0.0013012687 -0.0028755062 -0.0046599666 -0.016656192 -0.0054229232 -0.008409802 0.006735622 0.0021571266 0.013423307 0.0018081487 0.0008478363 0.0071739163 0.009838394 -0.01289828 -0.014228842 0.014792995 -0.0066202255 -0.010823323
